svm_type nu_svr
kernel_type rbf
gamma 0.125
nr_class 2
total_sv 2098
rho -8.23587765441101
SV
3.0 1:-1.0 2:0.027027 3:0.0420168 4:-0.831858 5:-0.63733 6:-0.699395 7:-0.735352 8:-0.704036 
-3.0 2:0.22973 3:0.226891 4:-0.761062 5:-0.52187 6:-0.656355 7:-0.628703 8:-0.584454 
3.0 2:0.22973 3:0.210084 4:-0.734513 5:-0.450682 6:-0.682582 7:-0.628703 8:-0.345291 
3.0 2:0.27027 3:0.243697 4:-0.778761 5:-0.457411 6:-0.605918 7:-0.607637 8:-0.484803 
3.0 2:0.283784 3:0.294118 4:-0.734513 5:-0.367806 6:-0.578346 7:-0.603687 8:-0.365222 
3.0 2:0.216216 3:0.092437 4:-0.752212 5:-0.571808 6:-0.740417 7:-0.612903 8:-0.584454 
-3.0 1:-1.0 2:-0.216216 3:-0.193277 4:-0.858407 5:-0.820436 6:-0.870881 7:-0.888084 8:-0.803687 
3.0 1:-1.0 2:-0.243243 3:-0.243697 4:-0.831858 5:-0.827519 6:-0.872898 7:-0.838051 8:-0.853513 
3.0 1:1.0 2:-0.175676 3:-0.260504 4:-0.823009 5:-0.841686 6:-0.893746 7:-0.872284 8:-0.833582 
3.0 2:0.324324 3:0.294118 4:-0.725664 5:-0.335931 6:-0.426362 7:-0.437788 8:-0.464873 
3.0 1:-1.0 2:0.432432 3:0.411765 4:-0.681416 5:-0.338056 6:-0.471419 7:-0.424621 8:-0.415047 
3.0 1:-1.0 2:0.351351 3:0.243697 4:-0.752212 5:-0.389764 6:-0.472764 7:-0.403555 8:-0.604385 
-3.0 1:-1.0 2:0.364865 3:0.394958 4:-0.707965 5:-0.294847 6:-0.472091 7:-0.364055 8:-0.345291 
3.0 2:0.635135 3:0.697479 4:-0.707965 5:0.159554 6:-0.186954 7:-0.262673 8:-0.0861983 
3.0 1:-1.0 2:0.594595 3:0.579832 4:-0.707965 5:-0.0536568 6:-0.259583 7:-0.0599078 8:-0.305431 
3.0 2:0.635135 3:0.663866 4:-0.690265 5:0.27218 6:0.0948218 7:0.0322581 8:-0.0961634 
3.0 2:0.256757 3:0.411765 4:-0.725664 5:-0.139366 6:-0.287828 7:-0.191573 8:-0.325361 
3.0 2:0.283784 3:0.243697 4:-0.761062 5:-0.398265 6:-0.514459 7:-0.485188 8:-0.464873 
-3.0 2:0.0405405 3:0.0756303 4:-0.787611 5:-0.675226 6:-0.762609 7:-0.711652 8:-0.704036 
-3.0 2:0.216216 3:0.243697 4:-0.716814 5:-0.409598 6:-0.524546 7:-0.439105 8:-0.514699 
-3.0 1:1.0 2:0.202703 3:0.193277 4:-0.787611 5:-0.579954 6:-0.680565 7:-0.709019 8:-0.624315 
-3.0 1:-1.0 2:-0.121622 3:-0.109244 4:-0.831858 5:-0.786789 6:-0.821789 7:-0.843318 8:-0.803687 
-3.0 1:-1.0 2:-0.108108 3:-0.142857 4:-0.823009 5:-0.728706 6:-0.768662 7:-0.760369 8:-0.783757 
-3.0 2:0.148649 3:0.159664 4:-0.752212 5:-0.532849 6:-0.656355 7:-0.539171 8:-0.564524 
-3.0 1:-1.0 3:-0.00840336 4:-0.787611 5:-0.687976 6:-0.743107 7:-0.749835 8:-0.733931 
-3.0 1:-1.0 2:0.0675676 3:0.109244 4:-0.761062 5:-0.58385 6:-0.629455 7:-0.685319 8:-0.664175 
-3.0 1:1.0 2:-0.540541 3:-0.546218 4:-0.893805 5:-0.940499 6:-0.944855 7:-0.96445 8:-0.953164 
-3.0 2:0.162162 3:0.159664 4:-0.778761 5:-0.588454 6:-0.670477 7:-0.658986 8:-0.65421 
-3.0 1:-1.0 2:0.0135135 3:-0.0252101 4:-0.814159 5:-0.709934 6:-0.759247 7:-0.705069 8:-0.733931 
-3.0 1:-1.0 2:-0.0540541 3:-0.092437 4:-0.831858 5:-0.73331 6:-0.772024 7:-0.790652 8:-0.803687 
-3.0 1:-1.0 2:0.202703 3:0.159664 4:-0.787611 5:-0.590579 6:-0.686617 7:-0.655036 8:-0.63428 
-3.0 2:0.405405 3:0.478992 4:-0.672566 5:-0.0911989 6:-0.441829 7:-0.411455 8:-0.0363727 
3.0 1:-1.0 2:0.297297 3:0.243697 4:-0.769912 5:-0.458474 6:-0.646268 7:-0.55892 8:-0.454908 
3.0 2:0.405405 3:0.411765 4:-0.699115 5:-0.118116 6:-0.35575 7:-0.408822 8:-0.155954 
-3.0 1:-1.0 2:0.337838 3:0.428571 4:-0.690265 5:-0.162033 6:-0.36382 7:-0.314022 8:-0.24564 
3.0 2:0.432432 3:0.327731 4:-0.654867 5:-0.223659 6:-0.354405 7:-0.238973 8:-0.375187 
3.0 2:0.418919 3:0.411765 4:-0.734513 5:-0.287763 6:-0.406187 7:-0.419355 8:-0.444943 
-3.0 1:-1.0 2:0.405405 3:0.411765 4:-0.752212 5:-0.332743 6:-0.513786 7:-0.503621 8:-0.375187 
-3.0 2:0.418919 3:0.394958 4:-0.734513 5:-0.348327 6:-0.513114 7:-0.490454 8:-0.395117 
3.0 2:0.459459 3:0.411765 4:-0.699115 5:-0.220471 6:-0.369872 7:-0.381172 8:-0.315396 
-3.0 2:0.351351 3:0.310924 4:-0.752212 5:-0.334868 6:-0.484196 7:-0.337722 8:-0.434978 
-3.0 1:-1.0 2:0.472973 3:0.529412 4:-0.690265 5:0.142554 6:-0.314728 7:-0.495721 8:0.342302 
3.0 2:0.202703 3:0.243697 4:-0.707965 5:-0.301222 6:-0.468729 7:-0.408822 8:-0.365222 
3.0 1:-1.0 2:0.405405 3:0.411765 4:-0.716814 5:-0.0681778 6:-0.452589 7:-0.385122 8:0.152965 
3.0 1:-1.0 2:0.364865 3:0.327731 4:-0.752212 5:-0.283868 6:-0.490249 7:-0.432521 8:-0.285501 
-3.0 2:0.337838 3:0.378151 4:-0.681416 5:-0.0841155 6:-0.545393 7:-0.415405 8:-0.126059 
3.0 1:-1.0 2:0.324324 3:0.243697 4:-0.761062 5:-0.426598 6:-0.542703 7:-0.560237 8:-0.494768 
-3.0 2:0.486486 3:0.478992 4:-0.707965 5:-0.107491 6:-0.319435 7:-0.163924 8:-0.22571 
3.0 1:-1.0 2:0.675676 3:0.697479 4:-0.663717 5:0.0568443 6:-0.210491 7:-0.0994075 8:-0.0363727 
-3.0 1:-1.0 2:0.243243 3:0.277311 4:-0.734513 5:-0.48787 6:-0.639543 7:-0.636603 8:-0.504733 
-3.0 1:-1.0 2:0.0675676 3:0.0756303 4:-0.769912 5:-0.630954 6:-0.713517 7:-0.65372 8:-0.714001 
-3.0 1:-1.0 2:0.0675676 3:0.0588235 4:-0.769912 5:-0.631309 6:-0.731002 7:-0.651086 8:-0.674141 
3.0 1:-1.0 2:0.283784 3:0.277311 4:-0.743363 5:-0.404285 6:-0.560188 7:-0.497038 8:-0.494768 
3.0 1:-1.0 2:0.22973 3:0.277311 4:-0.716814 5:-0.375952 6:-0.576328 7:-0.569454 8:-0.335326 
3.0 2:0.202703 3:0.193277 4:-0.725664 5:-0.486453 6:-0.609953 7:-0.518104 8:-0.534629 
-3.0 2:0.175676 3:0.12605 4:-0.761062 5:-0.552683 6:-0.690652 7:-0.529954 8:-0.604385 
3.0 1:1.0 2:-0.027027 3:-0.109244 4:-0.858407 5:-0.765893 6:-0.801614 7:-0.834101 8:-0.793722 
-3.0 1:-1.0 2:-0.0540541 3:-0.00840336 4:-0.814159 5:-0.723039 6:-0.826496 7:-0.835418 8:-0.674141 
3.0 2:0.22973 3:0.210084 4:-0.79646 5:-0.582433 6:-0.687962 7:-0.583937 8:-0.644245 
-3.0 2:0.310811 3:0.260504 4:-0.734513 5:-0.376306 6:-0.535306 7:-0.548387 8:-0.385152 
3.0 2:0.189189 3:0.243697 4:-0.752212 5:-0.458828 6:-0.592468 7:-0.54707 8:-0.494768 
-3.0 1:-1.0 2:-0.202703 3:-0.294118 4:-0.867257 5:-0.849832 6:-0.880296 7:-0.867018 8:-0.863478 
3.0 1:-1.0 2:0.689189 3:0.613445 4:-0.716814 5:0.220825 6:-0.154001 7:-0.307439 8:0.0732436 
3.0 1:-1.0 2:0.716216 3:0.630252 4:-0.707965 5:0.386223 6:0.0295898 7:-0.314022 8:0.55157 
3.0 1:-1.0 2:0.405405 3:0.428571 4:-0.707965 5:-0.107491 6:-0.351042 7:-0.25609 8:-0.18585 
3.0 1:1.0 2:-0.486486 3:-0.512605 4:-0.884956 5:-0.932353 6:-0.947545 7:-0.947334 8:-0.947185 
-3.0 2:-0.0540541 3:-0.0756303 4:-0.79646 5:-0.71383 6:-0.781439 7:-0.788018 8:-0.732935 
3.0 1:-1.0 2:-0.27027 3:-0.327731 4:-0.840708 5:-0.859394 6:-0.874916 7:-0.923634 8:-0.877429 
-3.0 2:0.283784 3:0.327731 4:-0.743363 5:-0.476536 6:-0.604573 7:-0.623436 8:-0.471849 
3.0 1:-1.0 2:0.554054 3:0.563025 4:-0.663717 5:-0.0490526 6:-0.303295 7:-0.195523 8:-0.113104 
3.0 1:1.0 2:-0.445946 3:-0.495798 4:-0.858407 5:-0.911457 6:-0.931406 7:-0.898618 8:-0.919283 
3.0 1:-1.0 2:0.391892 3:0.411765 4:-0.743363 5:-0.255534 6:-0.407532 7:-0.311389 8:-0.355257 
-3.0 2:0.432432 3:0.495798 4:-0.672566 5:-0.209138 6:-0.370545 7:-0.320606 8:-0.335326 
-3.0 2:0.513514 3:0.546218 4:-0.663717 5:-0.0299274 6:-0.320108 7:-0.198157 8:-0.106129 
-3.0 2:0.432432 3:0.445378 4:-0.716814 5:-0.253055 6:-0.503699 7:-0.381172 8:-0.295466 
3.0 2:0.364865 3:0.344538 4:-0.699115 5:-0.358597 6:-0.498319 7:-0.439105 8:-0.434978 
-3.0 2:0.351351 3:0.361345 4:-0.707965 5:-0.205242 6:-0.599866 7:-0.531271 8:-0.126059 
3.0 1:-1.0 2:0.432432 3:0.378151 4:-0.707965 5:-0.253409 6:-0.434432 7:-0.349572 8:-0.325361 
3.0 2:0.432432 3:0.445378 4:-0.716814 5:-0.135824 6:-0.2885 7:-0.323239 8:-0.444943 
-3.0 2:0.554054 3:0.647059 4:-0.59292 5:0.239596 6:-0.247478 7:-0.238973 8:0.621325 
3.0 2:0.756757 3:0.747899 4:-0.690265 5:0.503099 6:0.0275723 7:0.187623 8:0.691081 
3.0 2:0.635135 3:0.731092 4:-0.637168 5:0.303347 6:-0.160726 7:0.0730744 8:0.292476 
-3.0 1:-1.0 2:0.702703 3:0.697479 4:-0.610619 5:0.401806 6:0.0981843 7:-0.18894 8:0.511709 
-3.0 2:0.635135 3:0.546218 4:-0.690265 5:0.145033 6:-0.312038 7:0.0757077 8:0.232686 
-3.0 2:0.22973 3:0.142857 4:-0.743363 5:-0.452453 6:-0.587088 7:-0.556287 8:-0.494768 
-3.0 1:-1.0 2:0.216216 3:0.277311 4:-0.725664 5:-0.247034 6:-0.34768 7:-0.387755 8:-0.434978 
-3.0 2:0.202703 3:0.176471 4:-0.79646 5:-0.451744 6:-0.570948 7:-0.515471 8:-0.564524 
3.0 1:1.0 2:-0.351351 3:-0.361345 4:-0.849558 5:-0.89977 6:-0.930061 7:-0.876234 8:-0.903338 
-3.0 1:-1.0 2:0.364865 3:0.411765 4:-0.734513 5:-0.314326 6:-0.483524 7:-0.431205 8:-0.305431 
3.0 1:-1.0 2:0.337838 3:0.428571 4:-0.681416 5:-0.335931 6:-0.464694 7:-0.474654 8:-0.415047 
3.0 1:-1.0 2:0.527027 3:0.529412 4:-0.690265 5:-0.0324066 6:-0.308675 7:-0.300856 8:0.133034 
-3.0 2:0.472973 3:0.411765 4:-0.690265 5:-0.281388 6:-0.415602 7:-0.437788 8:-0.355257 
3.0 1:-1.0 2:0.472973 3:0.462185 4:-0.663717 5:-0.138658 6:-0.267653 7:-0.22054 8:-0.295466 
3.0 2:0.5 3:0.428571 4:-0.734513 5:-0.255888 6:-0.474109 7:-0.116524 8:-0.434978 
-3.0 2:0.5 3:0.495798 4:-0.672566 5:-0.0217815 6:-0.27505 7:-0.128374 8:-0.24564 
-3.0 2:0.378378 3:0.361345 4:-0.699115 5:-0.340889 6:-0.510424 7:-0.287689 8:-0.425012 
3.0 1:-1.0 2:0.459459 3:0.428571 4:-0.681416 5:-0.180096 6:-0.349697 7:-0.431205 8:-0.355257 
3.0 2:0.175676 3:0.159664 4:-0.752212 5:-0.424473 6:-0.383995 7:-0.483871 8:-0.61435 
3.0 1:-1.0 2:0.148649 3:0.176471 4:-0.725664 5:-0.454578 6:-0.535978 7:-0.597103 8:-0.514699 
3.0 1:-1.0 2:0.527027 3:0.495798 4:-0.672566 5:-0.0780946 6:-0.403497 7:-0.307439 8:-0.0762332 
3.0 1:-1.0 2:0.310811 3:0.327731 4:-0.716814 5:-0.348327 6:-0.420309 7:-0.532587 8:-0.484803 
-3.0 1:-1.0 2:0.378378 3:0.361345 4:-0.672566 5:-0.348327 6:-0.512441 7:-0.440421 8:-0.434978 
3.0 2:0.22973 3:0.277311 4:-0.699115 5:-0.423765 6:-0.599866 7:-0.593153 8:-0.454908 
-3.0 2:0.121622 3:0.0420168 4:-0.743363 5:-0.551974 6:-0.73302 7:-0.573404 8:-0.564524 
3.0 2:-0.0810811 3:-0.092437 4:-0.814159 5:-0.732247 6:-0.786819 7:-0.794602 8:-0.763827 
-3.0 1:-1.0 2:0.148649 3:0.176471 4:-0.752212 5:-0.565433 6:-0.677202 7:-0.644503 8:-0.59442 
3.0 2:0.108108 3:0.142857 4:-0.716814 5:-0.533912 6:-0.66846 7:-0.664253 8:-0.534629 
-3.0 1:-1.0 2:0.283784 3:0.176471 4:-0.752212 5:-0.432973 6:-0.673167 7:-0.57077 8:-0.494768 
-3.0 1:-1.0 2:0.0135135 3:-0.00840336 4:-0.769912 5:-0.67558 6:-0.767317 7:-0.709019 8:-0.733931 
-3.0 2:0.121622 3:0.0756303 4:-0.734513 5:-0.593767 6:-0.705447 7:-0.62212 8:-0.624315 
3.0 1:1.0 2:-0.0540541 3:0.092437 4:-0.814159 5:-0.770143 6:-0.828514 7:-0.794602 8:-0.803687 
-3.0 2:-0.148649 3:-0.210084 4:-0.778761 5:-0.785019 6:-0.838601 7:-0.785385 8:-0.823617 
-3.0 2:0.364865 3:0.378151 4:-0.707965 5:-0.221179 6:-0.457969 7:-0.449638 8:-0.305431 
3.0 2:0.22973 3:0.210084 4:-0.716814 5:-0.446786 6:-0.60659 7:-0.585253 8:-0.514699 
3.0 1:-1.0 2:0.297297 3:0.310924 4:-0.761062 5:-0.409244 6:-0.549428 7:-0.573404 8:-0.454908 
3.0 1:-1.0 2:0.324324 3:0.294118 4:-0.690265 5:-0.362139 6:-0.584398 7:-0.493088 8:-0.355257 
3.0 1:-1.0 2:0.486486 3:0.512605 4:-0.619469 5:0.0224898 6:-0.33423 7:-0.245556 8:-0.136024 
3.0 1:1.0 2:-0.459459 3:-0.462185 4:-0.867257 5:-0.919603 6:-0.936113 7:-0.924951 8:-0.933234 
3.0 1:1.0 2:-0.0135135 3:-0.00840336 4:-0.761062 5:-0.693288 6:-0.757229 7:-0.782752 8:-0.753861 
3.0 1:1.0 2:-0.405405 3:-0.428571 4:-0.858407 5:-0.913582 6:-0.936113 7:-0.917051 8:-0.923269 
-3.0 1:1.0 2:-1.0 3:-1.0 4:-0.982301 5:-1.0 6:-1.0 7:-1.0 8:-1.0 
3.0 1:-1.0 2:0.324324 3:0.243697 4:-0.716814 5:-0.333806 6:-0.531271 7:-0.425938 8:-0.454908 
3.0 1:1.0 2:-0.391892 3:-0.411765 4:-0.858407 5:-0.911103 6:-0.942838 7:-0.931534 8:-0.923269 
3.0 1:1.0 2:-0.310811 3:-0.327731 4:-0.849558 5:-0.884186 6:-0.916611 7:-0.898618 8:-0.883408 
3.0 1:1.0 2:-0.256757 3:-0.310924 4:-0.849558 5:-0.878165 6:-0.906523 7:-0.910467 8:-0.883408 
3.0 1:1.0 2:-0.337838 3:-0.361345 4:-0.858407 5:-0.889145 6:-0.915938 7:-0.915734 8:-0.903338 
3.0 1:1.0 2:-0.22973 3:-0.260504 4:-0.849558 5:-0.861519 6:-0.901143 7:-0.892034 8:-0.863478 
3.0 2:0.405405 3:0.344538 4:-0.725664 5:-0.250221 6:-0.310693 7:-0.431205 8:-0.405082 
3.0 2:0.351351 3:0.361345 4:-0.672566 5:-0.226492 6:-0.398117 7:-0.429888 8:-0.315396 
3.0 1:-1.0 2:0.418919 3:0.478992 4:-0.707965 5:-0.122012 6:-0.349025 7:-0.270573 8:-0.325361 
3.0 1:-1.0 2:0.310811 3:0.327731 4:-0.690265 5:-0.285284 6:-0.485541 7:-0.457538 8:-0.265571 
3.0 1:-1.0 2:0.310811 3:0.327731 4:-0.672566 5:-0.243492 6:-0.489576 7:-0.540487 8:-0.18585 
-3.0 1:-1.0 2:0.27027 3:0.361345 4:-0.716814 5:-0.365681 6:-0.542703 7:-0.565504 8:-0.315396 
3.0 2:0.513514 3:0.512605 4:-0.699115 5:8.85426E-4 6:-0.187626 7:-0.219223 8:-0.275536 
3.0 2:0.391892 3:0.411765 4:-0.716814 5:-0.221179 6:-0.359112 7:-0.328506 8:-0.415047 
3.0 2:0.337838 3:0.294118 4:-0.778761 5:-0.388702 6:-0.507061 7:-0.54707 8:-0.464873 
-3.0 1:1.0 2:-0.540541 3:-0.529412 4:-0.893805 5:-0.934124 6:-0.941493 7:-0.936801 8:-0.951171 
3.0 2:0.0405405 3:0.092437 4:-0.769912 5:-0.548787 6:-0.597848 7:-0.599737 8:-0.684106 
3.0 1:-1.0 2:0.202703 3:0.327731 4:-0.734513 5:-0.367452 6:-0.515131 7:-0.511521 8:-0.534629 
-3.0 1:-1.0 2:0.0675676 3:0.12605 4:-0.734513 5:-0.551266 6:-0.707465 7:-0.768269 8:-0.494768 
3.0 2:0.0135135 3:0.0252101 4:-0.778761 5:-0.6476 6:-0.72764 7:-0.737986 8:-0.664175 
3.0 2:0.527027 3:0.579832 4:-0.619469 5:0.258721 6:-0.391392 7:-0.249506 8:0.0931739 
3.0 1:-1.0 2:0.391892 3:0.495798 4:-0.646018 5:-0.160616 6:-0.447209 7:-0.289006 8:-0.265571 
3.0 1:-1.0 2:0.5 3:0.512605 4:-0.60177 5:0.0788029 6:-0.248151 7:-0.123107 8:-0.106129 
3.0 1:-1.0 2:0.567568 3:0.630252 4:-0.619469 5:0.304764 6:-0.00268998 7:-0.140224 8:0.16293 
-3.0 2:0.581081 3:0.596639 4:-0.672566 5:-0.0462192 6:-0.338265 7:-0.356155 8:-0.0264076 
3.0 1:-1.0 2:0.513514 3:0.579832 4:-0.637168 5:0.0497609 6:-0.261601 7:-0.18104 8:-0.145989 
3.0 2:0.243243 3:0.210084 4:-0.672566 5:-0.405348 6:-0.579018 7:-0.583937 8:-0.405082 
3.0 1:-1.0 2:0.108108 3:0.142857 4:-0.752212 5:-0.555516 6:-0.694015 7:-0.666886 8:-0.554559 
3.0 1:-1.0 2:0.189189 3:0.092437 4:-0.690265 5:-0.323889 6:-0.564223 7:-0.585253 8:-0.385152 
-3.0 2:0.243243 3:0.210084 4:-0.699115 5:-0.378785 6:-0.604573 7:-0.483871 8:-0.434978 
3.0 2:0.135135 3:0.159664 4:-0.725664 5:-0.544891 6:-0.675857 7:-0.652403 8:-0.59442 
-3.0 1:-1.0 2:-0.0135135 3:0.00840336 4:-0.778761 5:-0.663184 6:-0.823806 7:-0.786702 8:-0.624315 
3.0 1:-1.0 2:0.256757 3:0.277311 4:-0.681416 5:-0.295909 6:-0.485541 7:-0.406188 8:-0.355257 
3.0 1:-1.0 2:0.445946 3:0.411765 4:-0.707965 5:-0.210908 6:-0.425689 7:-0.420671 8:-0.375187 
3.0 2:0.324324 3:0.344538 4:-0.690265 5:-0.283868 6:-0.541358 7:-0.456221 8:-0.305431 
3.0 1:-1.0 2:0.418919 3:0.478992 4:-0.654867 5:-0.252346 6:-0.484869 7:-0.500987 8:-0.255605 
-3.0 1:1.0 2:-0.445946 3:-0.478992 4:-0.849558 5:-0.925978 6:-0.94889 7:-0.923634 8:-0.943199 
3.0 1:-1.0 2:0.121622 3:0.142857 4:-0.752212 5:-0.612538 6:-0.70343 7:-0.665569 8:-0.704036 
-3.0 1:-1.0 2:-0.22973 3:-0.277311 4:-0.823009 5:-0.847707 6:-0.882313 7:-0.870968 8:-0.860488 
-3.0 1:1.0 2:-0.756757 3:-0.781513 4:-0.946903 5:-0.986187 6:-0.99193 7:-0.98815 8:-0.993024 
-3.0 1:-1.0 2:0.540541 3:0.546218 4:-0.575221 5:0.0904905 6:-0.367855 7:-0.0296248 8:0.0632785 
3.0 1:-1.0 2:0.283784 3:0.193277 4:-0.778761 5:-0.462724 6:-0.664425 7:-0.57077 8:-0.61435 
3.0 2:0.5 3:0.445378 4:-0.663717 5:-0.120595 6:-0.377942 7:-0.19684 8:-0.22571 
3.0 1:-1.0 2:0.310811 3:0.294118 4:-0.752212 5:-0.313618 6:-0.405514 7:-0.462804 8:-0.474838 
3.0 1:-1.0 2:0.405405 3:0.344538 4:-0.654867 5:-0.0589694 6:-0.383322 7:-0.14944 8:-0.315396 
3.0 2:0.472973 3:0.394958 4:-0.646018 5:-0.133345 6:-0.488904 7:-0.290323 8:-0.136024 
3.0 1:-1.0 2:0.5 3:0.445378 4:-0.690265 5:-0.0805738 6:-0.418292 7:-0.225806 8:-0.0861983 
3.0 2:0.513514 3:0.613445 4:-0.663717 5:-0.121658 6:-0.226631 7:-0.349572 8:-0.22571 
3.0 2:0.364865 3:0.344538 4:-0.725664 5:-0.40889 6:-0.577673 7:-0.636603 8:-0.365222 
3.0 1:-1.0 2:-0.162162 3:-0.142857 4:-0.823009 5:-0.799894 6:-0.858104 7:-0.803818 8:-0.803687 
3.0 1:-1.0 2:0.175676 3:0.159664 4:-0.769912 5:-0.545599 6:-0.638198 7:-0.56287 8:-0.59442 
3.0 1:-1.0 2:0.148649 3:0.092437 4:-0.725664 5:-0.5796 6:-0.71419 7:-0.577354 8:-0.604385 
3.0 1:-1.0 2:0.418919 3:0.411765 4:-0.663717 5:-0.231096 6:-0.459314 7:-0.302172 8:-0.355257 
3.0 1:-1.0 2:0.391892 3:0.327731 4:-0.672566 5:-0.0926155 6:-0.365165 7:-0.274523 8:-0.155954 
3.0 1:-1.0 2:0.472973 3:0.411765 4:-0.672566 5:-0.0628652 6:-0.188299 7:-0.14549 8:-0.345291 
3.0 2:0.324324 3:0.327731 4:-0.654867 5:-0.290597 6:-0.455279 7:-0.341672 8:-0.434978 
3.0 1:-1.0 2:0.351351 3:0.344538 4:-0.743363 5:-0.1762 6:-0.219906 7:-0.402238 8:-0.405082 
3.0 1:-1.0 2:0.472973 3:0.378151 4:-0.672566 5:-0.0989906 6:-0.222596 7:-0.194207 8:-0.365222 
3.0 2:0.162162 3:0.0756303 4:-0.681416 5:-0.599079 6:-0.688635 7:-0.607637 8:-0.664175 
-3.0 2:0.0405405 3:0.243697 4:-0.725664 5:-0.472995 6:-0.597176 7:-0.601053 8:-0.524664 
3.0 1:-1.0 2:0.121622 3:0.12605 4:-0.752212 5:-0.50062 6:-0.62542 7:-0.425938 8:-0.644245 
-3.0 2:0.216216 3:0.226891 4:-0.716814 5:-0.465911 6:-0.632145 7:-0.545754 8:-0.454908 
3.0 1:-1.0 2:0.445946 3:0.428571 4:-0.734513 5:-0.151408 6:-0.248151 7:-0.354839 8:-0.444943 
-3.0 2:0.445946 3:0.478992 4:-0.672566 5:-0.1847 6:-0.28043 7:-0.23634 8:-0.514699 
3.0 2:0.378378 3:0.327731 4:-0.699115 5:-0.386223 6:-0.554136 7:-0.57077 8:-0.464873 
3.0 1:-1.0 2:0.337838 3:0.361345 4:-0.752212 5:-0.326014 6:-0.400807 7:-0.457538 8:-0.514699 
3.0 1:-1.0 2:0.513514 3:0.546218 4:-0.699115 5:-0.0982823 6:-0.316745 7:-0.24819 8:-0.325361 
3.0 1:-1.0 2:0.689189 3:0.764706 4:-0.637168 5:0.507349 6:-0.00403497 7:0.289006 8:0.152965 
3.0 1:-1.0 2:0.621622 3:0.579832 4:-0.672566 5:0.12272 6:-0.0685945 7:-0.116524 8:-0.215745 
3.0 2:0.540541 3:0.579832 4:-0.663717 5:0.279617 6:-0.0551446 7:0.0217248 8:-0.215745 
3.0 1:-1.0 2:0.810811 3:0.781513 4:-0.619469 5:0.768727 6:0.244788 7:0.241606 8:0.392128 
3.0 2:0.648649 3:0.647059 4:-0.681416 5:0.25093 6:0.00672495 7:0.0309414 8:-0.0363727 
3.0 1:-1.0 2:0.432432 3:0.462185 4:-0.681416 5:-0.132283 6:-0.35575 7:-0.245556 8:-0.305431 
3.0 2:0.554054 3:0.579832 4:-0.690265 5:0.00619798 6:-0.180901 7:-0.21264 8:-0.116094 
3.0 2:0.418919 3:0.428571 4:-0.734513 5:-0.272534 6:-0.451917 7:-0.289006 8:-0.415047 
3.0 1:-1.0 2:0.5 3:0.546218 4:-0.716814 5:-0.281743 6:-0.434432 7:-0.358789 8:-0.295466 
3.0 1:-1.0 2:0.364865 3:0.378151 4:-0.743363 5:-0.373118 6:-0.408877 7:-0.565504 8:-0.474838 
3.0 2:0.662162 3:0.697479 4:-0.619469 5:0.216221 6:-0.0867518 7:-0.213957 8:-0.0662681 
3.0 2:0.554054 3:0.647059 4:-0.707965 5:0.107845 6:-0.107599 7:-0.0915076 8:-0.175884 
3.0 2:0.581081 3:0.714286 4:-0.654867 5:0.245617 6:-0.070612 7:-0.14154 8:-0.00647733 
3.0 2:0.635135 3:0.764706 4:-0.646018 5:0.264388 6:-0.214526 7:0.191573 8:0.192825 
3.0 2:0.689189 3:0.747899 4:-0.699115 5:-0.0734903 6:-0.316073 7:-0.174457 8:-0.165919 
3.0 2:0.621622 3:0.647059 4:-0.654867 5:0.2272 6:-0.0806994 7:-0.0283081 8:0.20279 
3.0 1:-1.0 2:0.324324 3:0.378151 4:-0.690265 5:-0.296618 6:-0.477471 7:-0.519421 8:-0.265571 
3.0 1:-1.0 2:0.432432 3:0.394958 4:-0.681416 5:-0.193554 6:-0.496301 7:-0.262673 8:-0.235675 
3.0 1:-1.0 2:0.0675676 3:0.0756303 4:-0.787611 5:-0.607225 6:-0.697377 7:-0.680053 8:-0.61435 
3.0 1:-1.0 2:0.256757 3:0.226891 4:-0.725664 5:-0.478307 6:-0.528581 7:-0.601053 8:-0.574489 
3.0 1:-1.0 2:0.121622 3:0.226891 4:-0.778761 5:-0.570037 6:-0.679892 7:-0.623436 8:-0.564524 
3.0 1:1.0 2:-0.0810811 3:-0.092437 4:-0.823009 5:-0.773685 6:-0.794889 7:-0.844635 8:-0.793722 
3.0 1:1.0 2:-0.216216 3:-0.193277 4:-0.831858 5:-0.824332 6:-0.856759 7:-0.857801 8:-0.843548 
3.0 1:1.0 2:-0.148649 3:-0.142857 4:-0.823009 5:-0.787498 6:-0.845326 7:-0.832785 8:-0.773792 
-3.0 1:-1.0 2:0.0675676 3:0.092437 4:-0.743363 5:-0.585975 6:-0.680565 7:-0.62212 8:-0.63428 
-3.0 1:-1.0 2:0.189189 3:0.344538 4:-0.761062 5:-0.489641 6:-0.604573 7:-0.573404 8:-0.534629 
-3.0 2:-0.027027 3:-0.092437 4:-0.80531 5:-0.694351 6:-0.761937 7:-0.741935 8:-0.694071 
3.0 2:0.216216 3:0.294118 4:-0.734513 5:-0.40464 6:-0.505716 7:-0.478604 8:-0.524664 
-3.0 1:-1.0 2:0.0135135 3:0.00840336 4:-0.79646 5:-0.662121 6:-0.715535 7:-0.726136 8:-0.704036 
3.0 1:-1.0 2:0.391892 3:0.445378 4:-0.787611 5:-0.356118 6:-0.476799 7:-0.522054 8:-0.425012 
-3.0 1:-1.0 2:0.337838 3:0.294118 4:-0.831858 5:-0.415619 6:-0.544721 7:-0.418038 8:-0.534629 
3.0 1:-1.0 2:0.391892 3:0.495798 4:-0.707965 5:-0.219054 6:-0.387357 7:-0.362739 8:-0.325361 
3.0 1:-1.0 2:0.378378 3:0.411765 4:-0.787611 5:-0.332035 6:-0.449899 7:-0.444371 8:-0.444943 
2.6935526354042465 2:0.364865 3:0.361345 4:-0.787611 5:-0.29768 6:-0.379287 7:-0.373272 8:-0.444943 
3.0 1:-1.0 2:0.27027 3:0.294118 4:-0.787611 5:-0.394723 6:-0.533961 7:-0.549704 8:-0.524664 
3.0 2:0.432432 3:0.478992 4:-0.699115 5:-0.124137 6:-0.29119 7:-0.352205 8:-0.22571 
3.0 2:0.472973 3:0.394958 4:-0.752212 5:-0.270055 6:-0.516476 7:-0.411455 8:-0.285501 
3.0 2:0.5 3:0.495798 4:-0.699115 5:-0.0710112 6:-0.248823 7:-0.298223 8:-0.20578 
3.0 1:-1.0 2:0.5 3:0.546218 4:-0.707965 5:-0.04374 6:-0.34499 7:-0.082291 8:-0.106129 
3.0 2:0.5 3:0.495798 4:-0.725664 5:-0.289534 6:-0.507734 7:-0.477288 8:-0.285501 
3.0 1:-1.0 2:0.27027 3:0.193277 4:-0.752212 5:-0.558704 6:-0.701412 7:-0.579987 8:-0.534629 
3.0 1:1.0 2:0.121622 3:0.092437 4:-0.787611 5:-0.626704 6:-0.710155 7:-0.635286 8:-0.694071 
3.0 2:0.121622 3:0.12605 4:-0.761062 5:-0.591642 6:-0.669805 7:-0.677419 8:-0.604385 
3.0 1:1.0 2:-0.418919 3:-0.428571 4:-0.876106 5:-0.929874 6:-0.952925 7:-0.939434 8:-0.933234 
3.0 1:-1.0 2:0.364865 3:0.327731 4:-0.690265 5:-0.244909 6:-0.429724 7:-0.466754 8:-0.365222 
3.0 2:0.445946 3:0.445378 4:-0.707965 5:-0.228263 6:-0.472091 7:-0.360105 8:-0.345291 
3.0 1:-1.0 2:0.418919 3:0.495798 4:-0.716814 5:-0.282451 6:-0.464022 7:-0.544437 8:-0.345291 
3.0 2:0.310811 3:0.344538 4:-0.778761 5:-0.333451 6:-0.538668 7:-0.661619 8:-0.255605 
3.0 2:0.351351 3:0.327731 4:-0.699115 5:-0.25943 6:-0.493611 7:-0.552337 8:-0.235675 
3.0 2:0.337838 3:0.327731 4:-0.690265 5:-0.324597 6:-0.490249 7:-0.56287 8:-0.415047 
3.0 1:-1.0 2:0.418919 3:0.394958 4:-0.725664 5:-0.267576 6:-0.412912 7:-0.485188 8:-0.355257 
3.0 1:-1.0 2:0.324324 3:0.344538 4:-0.699115 5:-0.359306 6:-0.541358 7:-0.59052 8:-0.365222 
3.0 1:-1.0 2:0.27027 3:0.226891 4:-0.752212 5:-0.469807 6:-0.66846 7:-0.658986 8:-0.494768 
3.0 1:1.0 2:-0.0135135 3:-0.0252101 4:-0.823009 5:-0.742164 6:-0.837256 7:-0.763002 8:-0.763827 
3.0 1:1.0 2:-0.162162 3:-0.159664 4:-0.831858 5:-0.822915 6:-0.878278 7:-0.856485 8:-0.823617 
3.0 1:-1.0 2:0.148649 3:0.210084 4:-0.707965 5:-0.513724 6:-0.666443 7:-0.63792 8:-0.504733 
3.0 1:1.0 2:-0.22973 3:-0.260504 4:-0.80531 5:-0.836019 6:-0.873571 7:-0.863068 8:-0.833582 
3.0 1:1.0 2:-0.297297 3:-0.310924 4:-0.823009 5:-0.865415 6:-0.895763 7:-0.847268 8:-0.863478 
3.0 2:0.162162 3:0.243697 4:-0.752212 5:-0.399327 6:-0.631473 7:-0.573404 8:-0.434978 
3.0 1:1.0 2:-0.135135 3:-0.193277 4:-0.823009 5:-0.809102 6:-0.821116 7:-0.915734 8:-0.833582 
1.6058273608090554 2:-0.0945946 3:-0.092437 4:-0.814159 5:-0.743935 6:-0.787492 7:-0.798552 8:-0.763827 
-3.0 2:0.310811 3:0.344538 4:-0.663717 5:-0.495661 6:-0.620713 7:-0.661619 8:-0.454908 
3.0 1:-1.0 2:0.324324 3:0.344538 4:-0.672566 5:-0.345139 6:-0.525219 7:-0.58657 8:-0.255605 
3.0 2:0.324324 3:0.344538 4:-0.734513 5:-0.420223 6:-0.510424 7:-0.58262 8:-0.484803 
3.0 1:-1.0 2:0.756757 3:0.714286 4:-0.619469 5:0.338056 6:-0.0632145 7:0.242923 8:0.152965 
3.0 2:0.621622 3:0.613445 4:-0.716814 5:-0.00265628 6:-0.205111 7:-0.16524 8:-0.165919 
3.0 2:0.594595 3:0.680672 4:-0.654867 5:0.0175314 6:-0.219906 7:-0.0691244 8:-0.285501 
3.0 2:0.540541 3:0.663866 4:-0.690265 5:-0.0865947 6:-0.234701 7:-0.199473 8:-0.345291 
3.0 2:0.527027 3:0.630252 4:-0.690265 5:-0.136533 6:-0.3154 7:-0.319289 8:-0.22571 
3.0 1:1.0 2:-0.22973 3:-0.243697 4:-0.814159 5:-0.860457 6:-0.907868 7:-0.882818 8:-0.843548 
3.0 1:1.0 2:-0.0810811 3:-0.142857 4:-0.80531 5:-0.791394 6:-0.835911 7:-0.851218 8:-0.804684 
3.0 1:-1.0 2:-0.175676 3:-0.226891 4:-0.823009 5:-0.812644 6:-0.846671 7:-0.840685 8:-0.853513 
3.0 2:0.378378 3:0.378151 4:-0.699115 5:-0.299097 6:-0.481506 7:-0.411455 8:-0.474838 
3.0 2:0.635135 3:0.663866 4:-0.628319 5:0.234284 6:-0.197714 7:-0.198157 8:0.242651 
3.0 1:-1.0 2:0.621622 3:0.680672 4:-0.646018 5:0.0175314 6:-0.268325 7:-0.299539 8:-0.0762332 
-3.0 2:0.22973 3:0.294118 4:-0.761062 5:-0.446432 6:-0.580363 7:-0.549704 8:-0.567514 
3.0 1:1.0 2:-0.0405405 3:-0.0420168 4:-0.787611 5:-0.748185 6:-0.798252 7:-0.831468 8:-0.794718 
3.0 2:0.202703 3:0.176471 4:-0.787611 5:-0.557287 6:-0.645595 7:-0.628703 8:-0.642252 
-3.0 2:0.27027 3:0.210084 4:-0.716814 5:-0.454932 6:-0.635508 7:-0.61817 8:-0.451918 
3.0 1:-1.0 2:0.22973 3:0.210084 4:-0.690265 5:-0.477599 6:-0.650303 7:-0.63397 8:-0.475835 
3.0 1:-1.0 2:0.594595 3:0.630252 4:-0.690265 5:-0.0472817 6:-0.334902 7:-0.332456 8:-0.175884 
3.0 1:-1.0 2:0.783784 3:0.798319 4:-0.60177 5:0.24243 6:-0.144586 7:-0.104674 8:0.152965 
3.0 1:-1.0 2:0.581081 3:0.647059 4:-0.672566 5:-0.0664069 6:-0.287828 7:-0.307439 8:-0.0961634 
3.0 2:0.689189 3:0.781513 4:-0.672566 5:0.278909 6:-0.0524546 7:-0.154707 8:-0.0563029 
3.0 1:-1.0 2:0.351351 3:0.159664 4:-0.725664 5:-0.340889 6:-0.516476 7:-0.357472 8:-0.405082 
3.0 1:-1.0 2:0.337838 3:0.378151 4:-0.778761 5:-0.400035 6:-0.492266 7:-0.536537 8:-0.524664 
3.0 2:0.364865 3:0.361345 4:-0.734513 5:-0.296264 6:-0.424344 7:-0.443055 8:-0.484803 
3.0 1:-1.0 2:0.5 3:0.428571 4:-0.743363 5:-0.28493 6:-0.431742 7:-0.377222 8:-0.395117 
3.0 2:0.378378 3:0.378151 4:-0.752212 5:-0.358243 6:-0.488904 7:-0.576037 8:-0.375187 
3.0 2:0.486486 3:0.546218 4:-0.734513 5:-0.122012 6:-0.297243 7:-0.194207 8:-0.285501 
3.0 2:0.337838 3:0.344538 4:-0.707965 5:-0.25093 6:-0.409549 7:-0.423305 8:-0.434978 
3.0 1:-1.0 2:0.391892 3:0.344538 4:-0.743363 5:-0.241367 6:-0.362475 7:-0.500987 8:-0.434978 
3.0 1:-1.0 2:0.364865 3:0.361345 4:-0.769912 5:-0.349035 6:-0.521184 7:-0.524687 8:-0.425012 
3.0 1:-1.0 2:0.567568 3:0.596639 4:-0.690265 5:-0.106428 6:-0.34768 7:-0.307439 8:-0.175884 
3.0 1:-1.0 2:0.486486 3:0.495798 4:-0.654867 5:-0.0316982 6:-0.211163 7:-0.425938 8:-0.265571 
3.0 2:0.486486 3:0.495798 4:-0.734513 5:-0.326368 6:-0.537996 7:-0.412772 8:-0.395117 
-3.0 2:0.527027 3:0.563025 4:-0.690265 5:-0.117407 6:-0.430397 7:-0.317972 8:-0.0463378 
3.0 2:0.432432 3:0.445378 4:-0.707965 5:-0.285638 6:-0.416274 7:-0.450955 8:-0.405082 
-3.0 1:-1.0 2:0.297297 3:0.327731 4:-0.690265 5:-0.382327 6:-0.560861 7:-0.469388 8:-0.395117 
3.0 2:0.364865 3:0.294118 4:-0.681416 5:-0.396494 6:-0.508406 7:-0.57077 8:-0.514699 
3.0 2:0.472973 3:0.563025 4:-0.60177 5:-0.163095 6:-0.492939 7:-0.290323 8:-0.215745 
3.0 2:0.472973 3:0.394958 4:-0.60177 5:-0.211617 6:-0.492939 7:-0.436471 8:-0.285501 
3.0 2:0.486486 3:0.445378 4:-0.663717 5:-0.169471 6:-0.411567 7:-0.394338 8:-0.165919 
3.0 1:-1.0 2:0.418919 3:0.394958 4:-0.690265 5:-0.2187 6:-0.347007 7:-0.350889 8:-0.375187 
3.0 1:-1.0 2:0.378378 3:0.344538 4:-0.60177 5:-0.254117 6:-0.488231 7:-0.419355 8:-0.275536 
3.0 1:1.0 2:0.310811 3:0.310924 4:-0.725664 5:-0.382681 6:-0.597176 7:-0.450955 8:-0.454908 
-3.0 1:1.0 2:0.635135 3:0.596639 4:-0.672566 5:-0.215513 6:-0.410894 7:-0.356155 8:-0.325361 
-3.0 1:-1.0 2:-0.364865 3:-0.445378 4:-0.849558 5:-0.897999 6:-0.919301 7:-0.905201 8:-0.913303 
-3.0 2:-0.459459 3:-0.529412 4:-0.876106 5:-0.944749 6:-0.95965 7:-0.9447 8:-0.953164 
-3.0 1:-1.0 2:-0.445946 3:-0.512605 4:-0.858407 5:-0.936604 6:-0.95696 7:-0.9447 8:-0.943199 
-3.0 1:-1.0 2:-0.324324 3:-0.411765 4:-0.840708 5:-0.897291 6:-0.920646 7:-0.911784 8:-0.913303 
-3.0 2:-0.27027 3:-0.344538 4:-0.840708 5:-0.857624 6:-0.896436 7:-0.845951 8:-0.893373 
-3.0 1:-1.0 2:-0.635135 3:-0.680672 4:-0.911504 5:-0.974146 6:-0.980498 7:-0.978934 8:-0.983059 
-3.0 2:-0.22973 3:-0.277311 4:-0.840708 5:-0.867894 6:-0.887693 7:-0.899934 8:-0.893373 
3.0 1:1.0 2:-0.216216 3:-0.310924 4:-0.79646 5:-0.846998 6:-0.875588 7:-0.884134 8:-0.863478 
-3.0 1:-1.0 2:-0.567568 3:-0.647059 4:-0.893805 5:-0.962812 6:-0.965703 7:-0.9763 8:-0.973094 
-3.0 1:-1.0 2:-0.72973 3:-0.764706 4:-0.929204 5:-0.984417 6:-0.988568 7:-0.985517 8:-0.993024 
-3.0 1:-1.0 2:-0.783784 3:-0.815126 4:-0.929204 5:-0.990437 6:-0.992603 7:-0.993417 8:-0.993024 
3.0 2:0.337838 3:0.310924 4:-0.725664 5:-0.482203 6:-0.622058 7:-0.58262 8:-0.534629 
3.0 2:0.337838 3:0.327731 4:-0.716814 5:-0.313264 6:-0.468056 7:-0.329822 8:-0.484803 
3.0 1:1.0 2:0.22973 3:0.226891 4:-0.672566 5:-0.468744 6:-0.599193 7:-0.59052 8:-0.59442 
3.0 2:0.0405405 3:0.00840336 4:-0.769912 5:-0.676997 6:-0.743107 7:-0.723502 8:-0.743896 
3.0 1:1.0 2:0.0675676 3:0.0588235 4:-0.787611 5:-0.668142 6:-0.753194 7:-0.723502 8:-0.694071 
3.0 1:1.0 2:0.0675676 3:0.0588235 4:-0.752212 5:-0.648309 6:-0.71957 7:-0.678736 8:-0.714001 
3.0 1:1.0 2:0.0540541 3:0.092437 4:-0.769912 5:-0.67983 6:-0.746469 7:-0.790652 8:-0.694071 
3.0 1:1.0 2:0.202703 3:0.176471 4:-0.752212 5:-0.59235 6:-0.732347 7:-0.619487 8:-0.646238 
-3.0 1:-1.0 2:-0.459459 3:-0.495798 4:-0.876106 5:-0.934833 6:-0.956288 7:-0.94865 8:-0.938216 
3.0 2:-0.189189 3:-0.210084 4:-0.79646 5:-0.809811 6:-0.876261 7:-0.827518 8:-0.826607 
3.0 2:0.148649 3:0.0756303 4:-0.752212 5:-0.573579 6:-0.675857 7:-0.628703 8:-0.646238 
3.0 2:-0.0135135 3:0.00840336 4:-0.79646 5:-0.707455 6:-0.788164 7:-0.757735 8:-0.741903 
3.0 1:-1.0 2:-0.0675676 3:-0.092437 4:-0.79646 5:-0.79706 6:-0.866846 7:-0.851218 8:-0.776781 
3.0 2:-0.175676 3:-0.210084 4:-0.814159 5:-0.819373 6:-0.868191 7:-0.867018 8:-0.833582 
3.0 1:-1.0 2:-0.337838 3:-0.361345 4:-0.867257 5:-0.89127 6:-0.922663 7:-0.901251 8:-0.905331 
3.0 1:-1.0 2:-0.513514 3:-0.529412 4:-0.884956 5:-0.944749 6:-0.958978 7:-0.953917 8:-0.949178 
3.0 1:-1.0 2:-0.648649 3:-0.663866 4:-0.920354 5:-0.971312 6:-0.97848 7:-0.986833 8:-0.972098 
3.0 2:0.324324 3:0.327731 4:-0.716814 5:-0.438286 6:-0.516476 7:-0.591837 8:-0.544594 
3.0 1:1.0 2:0.554054 3:0.546218 4:-0.716814 5:-0.177971 6:-0.335575 7:-0.466754 8:-0.345291 
3.0 1:1.0 2:0.459459 3:0.462185 4:-0.725664 5:-0.301222 6:-0.443847 7:-0.487821 8:-0.315396 
3.0 1:1.0 2:0.310811 3:0.294118 4:-0.707965 5:-0.434744 6:-0.550773 7:-0.544437 8:-0.504733 
3.0 1:1.0 2:0.0945946 3:0.0588235 4:-0.787611 5:-0.63733 6:-0.72226 7:-0.656353 8:-0.694071 
3.0 1:1.0 2:0.108108 3:0.12605 4:-0.778761 5:-0.582787 6:-0.615333 7:-0.63002 8:-0.763827 
3.0 1:1.0 2:0.148649 3:0.109244 4:-0.734513 5:-0.557641 6:-0.650975 7:-0.56287 8:-0.684106 
3.0 1:1.0 2:0.216216 3:0.176471 4:-0.734513 5:-0.438286 6:-0.587761 7:-0.461488 8:-0.494768 
3.0 1:1.0 2:0.202703 3:0.159664 4:-0.743363 5:-0.533912 6:-0.642233 7:-0.723502 8:-0.564524 
-3.0 2:-0.0135135 3:-0.0420168 4:-0.814159 5:-0.743581 6:-0.802286 7:-0.789335 8:-0.768809 
3.0 1:1.0 2:0.189189 3:0.159664 4:-0.787611 5:-0.53462 6:-0.637525 7:-0.529954 8:-0.664175 
3.0 2:0.0810811 3:-0.00840336 4:-0.79646 5:-0.681247 6:-0.770679 7:-0.759052 8:-0.694071 
3.0 2:0.0675676 3:0.00840336 4:-0.769912 5:-0.614308 6:-0.731675 7:-0.669519 8:-0.63428 
3.0 1:-1.0 2:-0.256757 3:-0.327731 4:-0.884956 5:-0.874624 6:-0.906523 7:-0.899934 8:-0.883408 
3.0 1:1.0 2:0.108108 3:0.00840336 4:-0.769912 5:-0.589871 6:-0.671822 7:-0.65372 8:-0.668161 
3.0 1:1.0 2:-0.027027 3:-0.0756303 4:-0.778761 5:-0.71383 6:-0.774714 7:-0.723502 8:-0.811659 
3.0 2:-0.0945946 3:-0.109244 4:-0.79646 5:-0.727289 6:-0.779422 7:-0.736669 8:-0.806677 
3.0 1:1.0 2:0.0135135 3:-0.00840336 4:-0.752212 5:-0.665663 6:-0.718897 7:-0.714286 8:-0.748879 
3.0 1:1.0 2:0.0135135 3:-0.0252101 4:-0.761062 5:-0.687622 6:-0.735709 7:-0.770902 8:-0.768809 
3.0 2:0.391892 3:0.344538 4:-0.725664 5:-0.246325 6:-0.487559 7:-0.402238 8:-0.175884 
3.0 2:0.337838 3:0.294118 4:-0.752212 5:-0.326014 6:-0.492266 7:-0.472021 8:-0.395117 
-3.0 1:1.0 2:0.445946 3:0.411765 4:-0.734513 5:-0.316805 6:-0.443847 7:-0.474654 8:-0.315396 
3.0 2:0.5 3:0.428571 4:-0.690265 5:-0.0327608 6:-0.326833 7:-0.202107 8:0.023418 
3.0 1:1.0 2:0.283784 3:0.243697 4:-0.734513 5:-0.430494 6:-0.495629 7:-0.55102 8:-0.514699 
3.0 2:0.540541 3:0.579832 4:-0.663717 5:0.03524 6:-0.111634 7:-0.0967742 8:-0.136024 
3.0 1:1.0 2:0.0405405 3:0.00840336 4:-0.752212 5:-0.651851 6:-0.710827 7:-0.651086 8:-0.773792 
3.0 2:-0.0945946 3:-0.159664 4:-0.823009 5:-0.744289 6:-0.767989 7:-0.830151 8:-0.783757 
3.0 1:1.0 2:0.135135 3:0.12605 4:-0.778761 5:-0.530016 6:-0.619368 7:-0.57472 8:-0.604385 
3.0 2:0.283784 3:0.193277 4:-0.743363 5:-0.414556 6:-0.585071 7:-0.499671 8:-0.504733 
3.0 1:-1.0 2:0.0135135 3:-0.0588235 4:-0.752212 5:-0.673809 6:-0.780767 7:-0.801185 8:-0.704036 
3.0 2:-0.108108 3:-0.142857 4:-0.787611 5:-0.782185 6:-0.815736 7:-0.848585 8:-0.813652 
3.0 1:1.0 2:0.175676 3:0.159664 4:-0.734513 5:-0.473703 6:-0.616005 7:-0.560237 8:-0.534629 
3.0 1:1.0 2:0.216216 3:0.193277 4:-0.690265 5:-0.382327 6:-0.519166 7:-0.456221 8:-0.59442 
3.0 2:0.581081 3:0.563025 4:-0.681416 5:0.0710112 6:-0.29388 7:-0.217907 8:-0.165919 
3.0 1:1.0 2:0.351351 3:0.344538 4:-0.681416 5:-0.397556 6:-0.595831 7:-0.520737 8:-0.405082 
-3.0 2:0.283784 3:0.260504 4:-0.752212 5:-0.496016 6:-0.656355 7:-0.511521 8:-0.554559 
3.0 1:1.0 2:0.432432 3:0.394958 4:-0.752212 5:-0.336285 6:-0.546066 7:-0.472021 8:-0.365222 
3.0 2:0.310811 3:0.310924 4:-0.654867 5:-0.306534 6:-0.591123 7:-0.410138 8:-0.335326 
3.0 1:1.0 2:0.243243 3:0.226891 4:-0.743363 5:-0.345493 6:-0.466039 7:-0.483871 8:-0.504733 
3.0 2:-0.162162 3:-0.12605 4:-0.80531 5:-0.798831 6:-0.836584 7:-0.834101 8:-0.836572 
3.0 2:-0.148649 3:-0.176471 4:-0.823009 5:-0.813706 6:-0.856759 7:-0.843318 8:-0.830593 
3.0 1:1.0 2:0.0675676 3:-0.0252101 4:-0.79646 5:-0.655392 6:-0.731675 7:-0.716919 8:-0.672147 
3.0 1:1.0 2:0.189189 3:0.12605 4:-0.752212 5:-0.607933 6:-0.732347 7:-0.702436 8:-0.557549 
3.0 1:1.0 2:-0.0540541 3:-0.0252101 4:-0.778761 5:-0.700372 6:-0.786147 7:-0.791968 8:-0.696064 
3.0 1:-1.0 2:-0.27027 3:-0.277311 4:-0.840708 5:-0.86329 6:-0.896436 7:-0.881501 8:-0.885401 
3.0 1:1.0 2:0.108108 3:0.0588235 4:-0.769912 5:-0.676997 6:-0.757902 7:-0.703752 8:-0.731938 
3.0 1:-1.0 2:-0.202703 3:-0.226891 4:-0.823009 5:-0.839915 6:-0.910558 7:-0.823568 8:-0.841555 
3.0 1:-1.0 2:-0.256757 3:-0.294118 4:-0.840708 5:-0.875686 6:-0.924008 7:-0.890718 8:-0.867464 
3.0 2:-0.0135135 3:-0.0252101 4:-0.699115 5:-0.71206 6:-0.799597 7:-0.784068 8:-0.701046 
-3.0 1:-1.0 2:-0.675676 3:-0.697479 4:-0.911504 5:-0.97875 6:-0.987895 7:-0.98025 8:-0.979073 
3.0 1:-1.0 2:-0.324324 3:-0.378151 4:-0.867257 5:-0.891624 6:-0.937458 7:-0.907834 8:-0.883408 
3.0 1:1.0 2:0.135135 3:0.0588235 4:-0.778761 5:-0.663184 6:-0.752522 7:-0.815668 8:-0.666168 
3.0 1:1.0 2:0.0135135 3:-0.00840336 4:-0.743363 5:-0.629538 6:-0.720915 7:-0.737986 8:-0.673144 
3.0 1:-1.0 2:-0.0810811 3:-0.0252101 4:-0.761062 5:-0.727643 6:-0.829186 7:-0.816985 8:-0.708022 
3.0 2:0.0675676 3:0.00840336 4:-0.752212 5:-0.694705 6:-0.796234 7:-0.751152 8:-0.70005 
3.0 1:-1.0 2:-0.364865 3:-0.428571 4:-0.867257 5:-0.909687 6:-0.940148 7:-0.913101 8:-0.915296 
3.0 1:-1.0 2:-0.27027 3:-0.327731 4:-0.858407 5:-0.881707 6:-0.920646 7:-0.889401 8:-0.895366 
3.0 1:1.0 2:0.108108 3:0.092437 4:-0.752212 5:-0.524703 6:-0.70881 7:-0.658986 8:-0.61435 
3.0 2:0.148649 3:0.109244 4:-0.79646 5:-0.520808 6:-0.605245 7:-0.63792 8:-0.61435 
3.0 2:0.148649 3:0.109244 4:-0.814159 5:-0.648663 6:-0.759919 7:-0.712969 8:-0.664175 
3.0 1:1.0 2:0.0540541 3:0.0252101 4:-0.814159 5:-0.648663 6:-0.713517 7:-0.695853 8:-0.723966 
3.0 2:0.216216 3:0.176471 4:-0.716814 5:-0.535328 6:-0.64425 7:-0.705069 8:-0.554559 
3.0 1:1.0 2:0.22973 3:0.210084 4:-0.743363 5:-0.332743 6:-0.484196 7:-0.514154 8:-0.474838 
3.0 1:-1.0 2:-0.283784 3:-0.294118 4:-0.849558 5:-0.871436 6:-0.897781 7:-0.880184 8:-0.873443 
-3.0 2:-0.0405405 3:-0.0420168 4:-0.787611 5:-0.724455 6:-0.792199 7:-0.751152 8:-0.72297 
-3.0 1:-1.0 2:-0.243243 3:-0.310924 4:-0.849558 5:-0.866478 6:-0.892401 7:-0.873601 8:-0.893373 
3.0 1:1.0 2:-0.0135135 3:-0.0252101 4:-0.787611 5:-0.656455 6:-0.737054 7:-0.716919 8:-0.684106 
3.0 2:0.175676 3:0.159664 4:-0.769912 5:-0.595183 6:-0.706792 7:-0.64187 8:-0.61435 
3.0 2:0.391892 3:0.327731 4:-0.716814 5:-0.36391 6:-0.519839 7:-0.59052 8:-0.375187 
3.0 1:1.0 3:-0.0756303 4:-0.787611 5:-0.755622 6:-0.839946 7:-0.780118 8:-0.793722 
-3.0 1:-1.0 2:-0.310811 3:-0.462185 4:-0.867257 5:-0.920312 6:-0.94082 7:-0.931534 8:-0.933234 
-3.0 1:-1.0 2:0.0945946 3:0.0756303 4:-0.743363 5:-0.451036 6:-0.710827 7:-0.658986 8:-0.664175 
3.0 1:1.0 2:0.0405405 3:-0.00840336 4:-0.787611 5:-0.655392 6:-0.741762 7:-0.724819 8:-0.694071 
-3.0 1:-1.0 2:-0.513514 3:-0.579832 4:-0.884956 5:-0.945458 6:-0.955615 7:-0.96445 8:-0.953164 
3.0 1:1.0 2:0.0675676 3:-0.00840336 4:-0.769912 5:-0.67133 6:-0.753194 7:-0.740619 8:-0.714001 
3.0 2:-0.202703 3:-0.243697 4:-0.80531 5:-0.838144 6:-0.874243 7:-0.878868 8:-0.853513 
3.0 2:0.297297 3:0.277311 4:-0.707965 5:-0.314326 6:-0.549428 7:-0.391705 8:-0.415047 
3.0 2:0.459459 3:0.546218 4:-0.699115 5:-0.193908 6:-0.422327 7:-0.410138 8:-0.165919 
3.0 1:1.0 2:0.364865 3:0.462185 4:-0.654867 5:-0.0688861 6:-0.287828 7:-0.332456 8:-0.18585 
3.0 1:1.0 2:0.554054 3:0.579832 4:-0.681416 5:0.150345 6:-0.198386 7:-0.0941409 8:0.0533134 
3.0 2:-0.175676 3:-0.159664 4:-0.814159 5:-0.802373 6:-0.860794 7:-0.839368 8:-0.823617 
3.0 1:1.0 2:0.0135135 3:0.00840336 4:-0.787611 5:-0.70958 6:-0.847344 7:-0.826201 8:-0.684106 
3.0 2:-0.135135 3:-0.193277 4:-0.831858 5:-0.842394 6:-0.896436 7:-0.859118 8:-0.843548 
3.0 1:-1.0 2:0.027027 3:-0.00840336 4:-0.787611 5:-0.658934 6:-0.757229 7:-0.62212 8:-0.684106 
3.0 2:0.108108 3:0.092437 4:-0.734513 5:-0.572871 6:-0.7115 7:-0.632653 8:-0.644245 
3.0 2:0.0135135 3:-0.00840336 4:-0.743363 5:-0.617142 6:-0.763954 7:-0.677419 8:-0.65421 
3.0 1:-1.0 2:0.0810811 3:0.109244 4:-0.743363 5:-0.564016 6:-0.685272 7:-0.716919 8:-0.574489 
3.0 2:0.148649 3:0.092437 4:-0.725664 5:-0.537454 6:-0.677875 7:-0.624753 8:-0.59442 
3.0 2:0.22973 3:0.193277 4:-0.707965 5:-0.426598 6:-0.678547 7:-0.556287 8:-0.524664 
3.0 1:-1.0 2:0.121622 3:0.12605 4:-0.734513 5:-0.595537 6:-0.698722 7:-0.674786 8:-0.664175 
3.0 2:0.121622 3:0.109244 4:-0.734513 5:-0.444307 6:-0.677202 7:-0.632653 8:-0.524664 
3.0 2:0.202703 3:0.142857 4:-0.681416 5:-0.548079 6:-0.788837 7:-0.711652 8:-0.514699 
3.0 2:0.0135135 3:0.092437 4:-0.707965 5:-0.423056 6:-0.665098 7:-0.497038 8:-0.474838 
-3.0 2:-0.027027 3:-0.092437 4:-0.79646 5:-0.724101 6:-0.794217 7:-0.753785 8:-0.763827 
3.0 1:-1.0 2:0.243243 3:0.176471 4:-0.672566 5:-0.410306 6:-0.574311 7:-0.54707 8:-0.425012 
3.0 1:-1.0 2:0.324324 3:0.294118 4:-0.672566 5:-0.357535 6:-0.538668 7:-0.389072 8:-0.494768 
3.0 2:0.243243 3:0.159664 4:-0.734513 5:-0.431557 6:-0.551446 7:-0.441738 8:-0.584454 
3.0 2:0.243243 3:0.176471 4:-0.778761 5:-0.344785 6:-0.651648 7:-0.62607 8:-0.315396 
3.0 2:-0.0405405 3:-0.092437 4:-0.79646 5:-0.727643 6:-0.802959 7:-0.720869 8:-0.783757 
-3.0 1:-1.0 2:-0.445946 3:-0.495798 4:-0.823009 5:-0.918895 6:-0.928043 7:-0.926267 8:-0.943199 
3.0 2:-0.0405405 3:-0.0588235 4:-0.787611 5:-0.686913 6:-0.792872 7:-0.699803 8:-0.723966 
3.0 2:-0.135135 3:-0.12605 4:-0.814159 5:-0.752435 6:-0.841964 7:-0.761685 8:-0.764823 
3.0 1:-1.0 2:-0.162162 3:-0.226891 4:-0.814159 5:-0.795644 6:-0.837929 7:-0.820935 8:-0.8286 
3.0 2:0.0945946 3:0.109244 4:-0.761062 5:-0.621746 6:-0.746469 7:-0.627386 8:-0.658196 
3.0 1:-1.0 2:-0.135135 3:-0.193277 4:-0.79646 5:-0.777581 6:-0.839274 7:-0.844635 8:-0.78276 
3.0 1:-1.0 2:-0.351351 3:-0.344538 4:-0.840708 5:-0.857624 6:-0.918628 7:-0.903884 8:-0.844544 
3.0 2:-0.27027 3:-0.310924 4:-0.840708 5:-0.85479 6:-0.897108 7:-0.886768 8:-0.850523 
1.0595910708167176 1:1.0 2:-0.405405 3:-0.428571 4:-0.840708 5:-0.923145 6:-0.946873 7:-0.936801 8:-0.939213 
3.0 1:-1.0 2:-0.189189 3:-0.176471 4:-0.823009 5:-0.826811 6:-0.861466 7:-0.876234 8:-0.837569 
3.0 1:1.0 2:-0.445946 3:-0.495798 4:-0.902655 5:-0.92102 6:-0.94082 7:-0.928901 8:-0.936223 
3.0 1:-1.0 2:-0.256757 3:-0.327731 4:-0.858407 5:-0.865769 6:-0.893746 7:-0.899934 8:-0.877429 
3.0 1:1.0 2:-0.459459 3:-0.512605 4:-0.884956 5:-0.928103 6:-0.937458 7:-0.947334 8:-0.943199 
3.0 1:1.0 2:-0.418919 3:-0.495798 4:-0.876106 5:-0.932353 6:-0.952925 7:-0.951284 8:-0.933234 
-3.0 1:1.0 2:-0.797297 3:-0.848739 4:-0.955752 5:-0.990792 6:-0.995293 7:-0.990783 8:-0.993024 
3.0 1:-1.0 2:0.297297 3:0.344538 4:-0.716814 5:-0.252346 6:-0.473436 7:-0.400922 8:-0.419033 
3.0 1:-1.0 2:0.297297 3:0.294118 4:-0.734513 5:-0.227909 6:-0.441829 7:-0.443055 8:-0.125062 
3.0 1:-1.0 2:0.216216 3:0.193277 4:-0.769912 5:-0.300159 6:-0.481506 7:-0.361422 8:-0.415047 
3.0 1:-1.0 2:0.0540541 3:0.0252101 4:-0.858407 5:-0.655746 6:-0.744452 7:-0.672153 8:-0.694071 
3.0 2:0.121622 3:0.0252101 4:-0.80531 5:-0.646892 6:-0.784802 7:-0.719552 8:-0.61435 
3.0 1:-1.0 2:-0.121622 3:-0.159664 4:-0.849558 5:-0.791039 6:-0.856086 7:-0.815668 8:-0.803687 
3.0 2:0.0945946 3:0.0756303 4:-0.814159 5:-0.629538 6:-0.707465 7:-0.686636 8:-0.694071 
3.0 1:-1.0 2:0.162162 3:0.159664 4:-0.778761 5:-0.455994 6:-0.63349 7:-0.58262 8:-0.494768 
3.0 2:0.202703 3:0.159664 4:-0.787611 5:-0.539933 6:-0.650303 7:-0.470704 8:-0.674141 
-3.0 1:-1.0 2:0.216216 3:0.159664 4:-0.769912 5:-0.413848 6:-0.677875 7:-0.520737 8:-0.454908 
3.0 1:-1.0 2:0.27027 3:0.226891 4:-0.769912 5:-0.378785 6:-0.498319 7:-0.55497 8:-0.544594 
3.0 1:-1.0 2:0.202703 3:0.159664 4:-0.787611 5:-0.418452 6:-0.600538 7:-0.526004 8:-0.474838 
3.0 1:-1.0 2:0.162162 3:0.092437 4:-0.769912 5:-0.536745 6:-0.696032 7:-0.531271 8:-0.564524 
3.0 1:-1.0 2:0.216216 3:0.243697 4:-0.787611 5:-0.387639 6:-0.621385 7:-0.537854 8:-0.425012 
3.0 1:-1.0 2:0.202703 3:0.109244 4:-0.79646 5:-0.527537 6:-0.680565 7:-0.548387 8:-0.59442 
3.0 2:0.202703 3:0.176471 4:-0.778761 5:-0.545599 6:-0.67653 7:-0.544437 8:-0.584454 
3.0 1:-1.0 2:0.243243 3:0.193277 4:-0.761062 5:-0.390827 6:-0.61735 7:-0.599737 8:-0.365222 
3.0 1:-1.0 2:0.22973 3:0.294118 4:-0.637168 5:-0.409952 6:-0.570948 7:-0.428571 8:-0.514699 
3.0 2:0.243243 3:0.226891 4:-0.734513 5:-0.479724 6:-0.626765 7:-0.511521 8:-0.574489 
3.0 2:0.202703 3:0.176471 4:-0.752212 5:-0.422348 6:-0.62542 7:-0.519421 8:-0.484803 
3.0 1:-1.0 2:0.22973 3:0.210084 4:-0.769912 5:-0.40464 6:-0.631473 7:-0.489138 8:-0.474838 
3.0 2:0.22973 3:0.226891 4:-0.769912 5:-0.292368 6:-0.544048 7:-0.406188 8:-0.474838 
3.0 2:0.581081 3:0.563025 4:-0.646018 5:0.185762 6:-0.0961668 7:0.263989 8:-0.106129 
3.0 1:-1.0 2:0.243243 3:0.226891 4:-0.769912 5:-0.430848 6:-0.596503 7:-0.524687 8:-0.444943 
3.0 1:-1.0 2:0.675676 3:0.546218 4:-0.690265 5:0.072782 6:-0.223941 7:0.0796577 8:-0.22571 
3.0 2:0.175676 3:0.12605 4:-0.814159 5:-0.567912 6:-0.749832 7:-0.60632 8:-0.61435 
3.0 2:0.364865 3:0.344538 4:-0.707965 5:-0.196387 6:-0.505044 7:-0.210007 8:-0.454908 
3.0 1:-1.0 2:0.554054 3:0.546218 4:-0.690265 5:0.0472817 6:-0.289173 7:-0.285056 8:0.0433483 
3.0 1:-1.0 2:0.472973 3:0.512605 4:-0.672566 5:0.0805738 6:-0.073302 7:-0.0322581 8:-0.305431 
3.0 1:-1.0 2:0.459459 3:0.579832 4:-0.725664 5:-0.195679 6:-0.507734 7:-0.379855 8:-0.265571 
3.0 2:0.432432 3:0.478992 4:-0.663717 5:0.0164689 6:-0.370545 7:-0.302172 8:-0.18585 
3.0 1:-1.0 2:0.337838 3:0.294118 4:-0.725664 5:-0.210908 6:-0.359112 7:-0.391705 8:-0.464873 
3.0 1:-1.0 2:0.337838 3:0.260504 4:-0.787611 5:-0.249513 6:-0.533289 7:-0.561554 8:-0.385152 
3.0 1:-1.0 2:0.378378 3:0.176471 4:-0.734513 5:-0.111387 6:-0.416274 7:-0.469388 8:-0.355257 
3.0 2:0.283784 3:0.294118 4:-0.725664 5:-0.331326 6:-0.580363 7:-0.520737 8:-0.335326 
3.0 2:0.256757 3:0.294118 4:-0.761062 5:-0.322118 6:-0.680565 7:-0.419355 8:-0.405082 
3.0 2:0.445946 3:0.394958 4:-0.743363 5:-0.1847 6:-0.459314 7:-0.221856 8:-0.365222 
-3.0 1:-1.0 2:0.27027 3:0.327731 4:-0.734513 5:-0.308659 6:-0.548756 7:-0.499671 8:-0.405082 
3.0 2:0.22973 3:0.243697 4:-0.699115 5:-0.329201 6:-0.532616 7:-0.370639 8:-0.448929 
-3.0 2:0.22973 3:0.344538 4:-0.707965 5:-0.306889 6:-0.577001 7:-0.260039 8:-0.412058 
-3.0 1:1.0 2:0.108108 3:0.0756303 4:-0.752212 5:-0.632371 6:-0.732347 7:-0.677419 8:-0.664175 
-3.0 1:-1.0 2:0.22973 3:0.193277 4:-0.707965 5:-0.482911 6:-0.747142 7:-0.553654 8:-0.385152 
3.0 1:-1.0 2:0.162162 3:0.109244 4:-0.743363 5:-0.521516 6:-0.683927 7:-0.529954 8:-0.604385 
3.0 1:-1.0 2:0.121622 3:0.092437 4:-0.752212 5:-0.549141 6:-0.691325 7:-0.627386 8:-0.61435 
3.0 1:-1.0 2:0.0540541 3:-0.00840336 4:-0.752212 5:-0.593767 6:-0.73033 7:-0.605003 8:-0.624315 
3.0 2:0.0675676 3:0.0252101 4:-0.743363 5:-0.621038 6:-0.769334 7:-0.639236 8:-0.61435 
3.0 1:-1.0 2:0.310811 3:0.193277 4:-0.707965 5:-0.34266 6:-0.529926 7:-0.377222 8:-0.405082 
3.0 1:-1.0 2:0.162162 3:0.109244 4:-0.734513 5:-0.547016 6:-0.670477 7:-0.601053 8:-0.574489 
-3.0 1:-1.0 2:0.189189 3:0.277311 4:-0.743363 5:-0.377014 6:-0.608608 7:-0.458855 8:-0.494768 
-3.0 1:1.0 2:-0.162162 3:-0.243697 4:-0.778761 5:-0.828582 6:-0.864156 7:-0.901251 8:-0.833582 
3.0 1:-1.0 2:0.283784 3:0.210084 4:-0.690265 5:-0.263326 6:-0.558171 7:-0.389072 8:-0.424016 
-3.0 2:0.189189 3:0.12605 4:-0.769912 5:-0.593767 6:-0.735709 7:-0.658986 8:-0.635277 
-3.0 2:0.337838 3:0.378151 4:-0.716814 5:-0.368514 6:-0.578346 7:-0.323239 8:-0.478824 
-3.0 1:-1.0 2:0.0675676 3:0.0588235 4:-0.681416 5:-0.640163 6:-0.743779 7:-0.662936 8:-0.679123 
-3.0 1:-1.0 2:0.364865 3:0.378151 4:-0.716814 5:-0.268638 6:-0.577673 7:-0.316656 8:-0.278525 
3.0 1:-1.0 2:0.189189 3:0.176471 4:-0.743363 5:-0.50912 6:-0.712172 7:-0.57077 8:-0.536622 
-3.0 1:-1.0 2:0.202703 3:0.226891 4:-0.716814 5:-0.473703 6:-0.658373 7:-0.587887 8:-0.428002 
3.0 2:-0.0540541 3:-0.0252101 4:-0.80531 5:-0.74181 6:-0.833221 7:-0.788018 8:-0.769806 
3.0 1:-1.0 2:0.189189 3:0.092437 4:-0.761062 5:-0.532849 6:-0.61466 7:-0.449638 8:-0.694071 
-3.0 1:-1.0 2:-0.108108 3:-0.159664 4:-0.787611 5:-0.77581 6:-0.835239 7:-0.763002 8:-0.813652 
3.0 2:0.0945946 3:0.159664 4:-0.778761 5:-0.463786 6:-0.715535 7:-0.529954 8:-0.524664 
3.0 2:0.202703 3:0.193277 4:-0.79646 5:-0.429786 6:-0.61735 7:-0.529954 8:-0.534629 
3.0 2:0.121622 3:0.0420168 4:-0.769912 5:-0.517266 6:-0.779422 7:-0.655036 8:-0.59442 
-3.0 1:1.0 2:-0.135135 3:-0.210084 4:-0.831858 5:-0.786081 6:-0.830531 7:-0.780118 8:-0.849527 
-3.0 1:1.0 2:-0.121622 3:-0.142857 4:-0.823009 5:-0.784664 6:-0.826496 7:-0.843318 8:-0.815645 
-3.0 1:1.0 2:-0.0945946 3:-0.092437 4:-0.823009 5:-0.72233 6:-0.721587 7:-0.828835 8:-0.791729 
-3.0 1:-1.0 2:-0.0810811 3:-0.159664 4:-0.823009 5:-0.771206 6:-0.791527 7:-0.868334 8:-0.821624 
-3.0 1:1.0 2:-0.0540541 3:-0.092437 4:-0.823009 5:-0.719497 6:-0.841964 7:-0.831468 8:-0.814649 
-3.0 1:-1.0 2:0.0675676 3:0.0756303 4:-0.787611 5:-0.590225 6:-0.643578 7:-0.755102 8:-0.666168 
-3.0 2:0.0945946 3:0.0420168 4:-0.761062 5:-0.548433 6:-0.605245 7:-0.703752 8:-0.65421 
-3.0 1:-1.0 2:0.121622 3:0.109244 4:-0.778761 5:-0.570037 6:-0.589106 7:-0.748519 8:-0.649228 
-3.0 1:-1.0 2:0.162162 3:0.294118 4:-0.752212 5:-0.415265 6:-0.542031 7:-0.512837 8:-0.526657 
-3.0 1:-1.0 2:0.216216 3:0.142857 4:-0.769912 5:-0.460599 6:-0.547411 7:-0.62607 8:-0.554559 
3.0 2:0.256757 3:0.226891 4:-0.752212 5:-0.431202 6:-0.505044 7:-0.54707 8:-0.584454 
-3.0 2:0.283784 3:0.260504 4:-0.778761 5:-0.347618 6:-0.458642 7:-0.540487 8:-0.438964 
-3.0 1:-1.0 2:0.283784 3:0.327731 4:-0.734513 5:-0.282805 6:-0.453934 7:-0.470704 8:-0.429995 
-3.0 2:0.283784 3:0.327731 4:-0.734513 5:-0.381619 6:-0.514459 7:-0.539171 8:-0.451918 
-3.0 1:-1.0 2:0.337838 3:0.344538 4:-0.734513 5:-0.327076 6:-0.477471 7:-0.433838 8:-0.455904 
-3.0 2:0.351351 3:0.378151 4:-0.752212 5:-0.322826 6:-0.406859 7:-0.523371 8:-0.463876 
-3.0 1:-1.0 2:0.391892 3:0.411765 4:-0.707965 5:-0.238534 6:-0.390047 7:-0.358789 8:-0.386148 
-3.0 2:0.405405 3:0.428571 4:-0.716814 5:-0.144679 6:-0.298588 7:-0.221856 8:-0.365222 
-3.0 2:0.405405 3:0.411765 4:-0.716814 5:-0.193554 6:-0.265636 7:-0.393022 8:-0.46288 
3.0 2:0.405405 3:0.378151 4:-0.752212 5:-0.213033 6:-0.305313 7:-0.358789 8:-0.395117 
-3.0 2:0.432432 3:0.411765 4:-0.690265 5:-0.0224898 6:-0.182246 7:-0.389072 8:-0.208769 
-3.0 1:-1.0 2:0.432432 3:0.344538 4:-0.716814 5:-0.219763 6:-0.435104 7:-0.207373 8:-0.355257 
3.0 2:0.459459 3:0.495798 4:-0.690265 5:-0.0260315 6:-0.250168 7:-0.132324 8:-0.421026 
-3.0 1:-1.0 2:0.459459 3:0.529412 4:-0.734513 5:-0.0834071 6:-0.268325 7:-0.128374 8:-0.365222 
-3.0 2:0.486486 3:0.462185 4:-0.725664 5:-0.145387 6:-0.375925 7:-0.57472 8:-0.183857 
3.0 1:-1.0 2:0.5 3:0.512605 4:-0.707965 5:-0.108907 6:-0.392737 7:-0.275839 8:-0.193822 
-3.0 1:-1.0 2:0.513514 3:0.529412 4:-0.699115 5:-0.0412608 6:-0.168796 7:-0.198157 8:-0.22571 
-3.0 1:-1.0 2:0.567568 3:0.563025 4:-0.707965 5:-0.00301045 6:-0.213181 7:-0.235023 8:-0.195815 
3.0 1:-1.0 2:0.567568 3:0.764706 4:-0.637168 5:0.472286 6:0.2885 7:-0.102041 8:0.194818 
3.0 1:-1.0 2:0.581081 3:0.596639 4:-0.699115 5:-0.0164689 6:-0.207128 7:-0.443055 8:-0.100149 
-3.0 2:0.608108 3:0.781513 4:-0.716814 5:-0.0741987 6:-0.268998 7:-0.225806 8:-0.17987 
-3.0 2:0.621622 3:0.579832 4:-0.725664 5:0.0458651 6:-0.156691 7:-0.104674 8:-0.165919 
3.0 1:-1.0 2:0.77027 3:0.815126 4:-0.59292 5:1.0 6:0.540686 7:0.102041 8:0.784753 
3.0 1:1.0 2:-0.648649 3:-0.714286 4:-0.911504 5:-0.968833 6:-0.979153 7:-0.969717 8:-0.976084 
-3.0 1:1.0 2:-0.554054 3:-0.596639 4:-0.884956 5:-0.954312 6:-0.95965 7:-0.965767 8:-0.969108 
-3.0 1:1.0 2:-0.513514 3:-0.579832 4:-0.902655 5:-0.942624 6:-0.95965 7:-0.9447 8:-0.963129 
-3.0 1:1.0 2:-0.391892 3:-0.394958 4:-0.858407 5:-0.908624 6:-0.934095 7:-0.931534 8:-0.917289 
3.0 1:1.0 2:-0.351351 3:-0.411765 4:-0.876106 5:-0.899416 6:-0.930061 7:-0.921001 8:-0.923269 
-3.0 1:1.0 2:-0.337838 3:-0.378151 4:-0.840708 5:-0.889853 6:-0.907196 7:-0.931534 8:-0.918286 
-3.0 1:1.0 2:-0.283784 3:-0.344538 4:-0.867257 5:-0.874978 6:-0.911903 7:-0.881501 8:-0.913303 
-3.0 1:1.0 2:-0.0945946 3:-0.142857 4:-0.840708 5:-0.765185 6:-0.781439 7:-0.840685 8:-0.821624 
-3.0 1:1.0 2:-0.0810811 3:-0.0756303 4:-0.840708 5:-0.746768 6:-0.772697 7:-0.788018 8:-0.823617 
-3.0 1:1.0 2:-0.0675676 3:-0.109244 4:-0.79646 5:-0.735081 6:-0.774042 7:-0.759052 8:-0.803687 
-3.0 1:1.0 2:-0.0675676 3:-0.12605 4:-0.823009 5:-0.758102 6:-0.790182 7:-0.791968 8:-0.823617 
-3.0 1:1.0 2:-0.0540541 3:-0.0420168 4:-0.823009 5:-0.730831 6:-0.780767 7:-0.748519 8:-0.803687 
-3.0 1:1.0 2:-0.0540541 3:-0.12605 4:-0.823009 5:-0.734372 6:-0.780094 7:-0.811718 8:-0.793722 
-3.0 1:1.0 2:-0.027027 3:-0.0420168 4:-0.79646 5:-0.723393 6:-0.755884 7:-0.795918 8:-0.774788 
-3.0 1:1.0 2:-0.0135135 3:-0.0252101 4:-0.769912 5:-0.683018 6:-0.720242 7:-0.781435 8:-0.735924 
-3.0 3:-0.0588235 4:-0.80531 5:-0.692934 6:-0.728985 7:-0.712969 8:-0.764823 
-3.0 1:1.0 3:-0.00840336 4:-0.769912 5:-0.704268 6:-0.773369 7:-0.752469 8:-0.764823 
-3.0 1:1.0 2:0.0135135 3:0.0252101 4:-0.769912 5:-0.66283 6:-0.744452 7:-0.666886 8:-0.729945 
-3.0 1:1.0 2:0.027027 3:0.00840336 4:-0.778761 5:-0.624225 6:-0.698722 7:-0.669519 8:-0.711011 
-3.0 1:1.0 2:0.027027 3:0.0756303 4:-0.787611 5:-0.649371 6:-0.6846 7:-0.723502 8:-0.744893 
-3.0 1:1.0 2:0.0540541 3:0.0588235 4:-0.79646 5:-0.623163 6:-0.650303 7:-0.743252 8:-0.717987 
-3.0 1:1.0 2:0.0540541 3:-0.0252101 4:-0.80531 5:-0.688684 6:-0.765299 7:-0.763002 8:-0.763827 
-3.0 2:0.0540541 3:-0.00840336 4:-0.778761 5:-0.659996 6:-0.691997 7:-0.722186 8:-0.784753 
-3.0 2:0.0810811 3:0.0252101 4:-0.787611 5:-0.582433 6:-0.564896 7:-0.711652 8:-0.749875 
-3.0 1:-1.0 2:0.0945946 3:0.0756303 4:-0.79646 5:-0.522224 6:-0.570276 7:-0.720869 8:-0.664175 
-3.0 1:-1.0 2:0.0945946 3:0.109244 4:-0.743363 5:-0.548079 6:-0.607935 7:-0.631336 8:-0.689088 
-3.0 1:-1.0 2:0.0945946 3:0.0420168 4:-0.787611 5:-0.57535 6:-0.581708 7:-0.693219 8:-0.723966 
-3.0 2:0.108108 3:0.0588235 4:-0.79646 5:-0.662476 6:-0.73302 7:-0.749835 8:-0.745889 
-3.0 1:-1.0 2:0.135135 3:0.159664 4:-0.761062 5:-0.569329 6:-0.635508 7:-0.623436 8:-0.715994 
-3.0 1:-1.0 2:0.148649 3:0.12605 4:-0.761062 5:-0.534266 6:-0.578346 7:-0.597103 8:-0.691081 
-3.0 1:-1.0 2:0.148649 3:0.109244 4:-0.761062 5:-0.546308 6:-0.571621 7:-0.661619 8:-0.69706 
-3.0 1:-1.0 2:0.148649 3:0.159664 4:-0.778761 5:-0.525058 6:-0.549428 7:-0.685319 8:-0.639263 
-3.0 1:1.0 2:0.175676 3:0.0756303 4:-0.823009 5:-0.591642 6:-0.681237 7:-0.678736 8:-0.65421 
-3.0 1:1.0 2:0.175676 3:0.176471 4:-0.761062 5:-0.456703 6:-0.509751 7:-0.583937 8:-0.644245 
-3.0 1:-1.0 2:0.175676 3:0.176471 4:-0.734513 5:-0.503099 6:-0.534633 7:-0.648453 8:-0.627304 
-3.0 1:-1.0 2:0.175676 3:0.193277 4:-0.743363 5:-0.437577 6:-0.481506 7:-0.523371 8:-0.613353 
-3.0 2:0.189189 3:0.260504 4:-0.752212 5:-0.410661 6:-0.507734 7:-0.474654 8:-0.544594 
-3.0 1:-1.0 2:0.189189 3:0.12605 4:-0.725664 5:-0.496724 6:-0.504371 7:-0.640553 8:-0.694071 
3.0 1:-1.0 2:0.216216 3:0.159664 4:-0.752212 5:-0.482557 6:-0.552118 7:-0.58657 8:-0.664175 
-3.0 2:0.22973 3:0.243697 4:-0.769912 5:-0.46414 6:-0.564223 7:-0.482554 8:-0.59442 
-3.0 2:0.22973 3:0.243697 4:-0.734513 5:-0.399681 6:-0.560188 7:-0.390388 8:-0.600399 
-3.0 1:-1.0 2:0.22973 3:0.176471 4:-0.778761 5:-0.539933 6:-0.63618 7:-0.57867 8:-0.632287 
-3.0 2:0.243243 3:0.159664 4:-0.761062 5:-0.419515 6:-0.472091 7:-0.485188 8:-0.59442 
-3.0 1:-1.0 2:0.243243 3:0.260504 4:-0.752212 5:-0.493891 6:-0.61735 7:-0.581303 8:-0.573493 
-3.0 1:-1.0 2:0.243243 3:0.277311 4:-0.752212 5:-0.382327 6:-0.498991 7:-0.398288 8:-0.565521 
-3.0 2:0.283784 3:0.260504 4:-0.752212 5:-0.427307 6:-0.506389 7:-0.577354 8:-0.454908 
-3.0 2:0.310811 3:0.344538 4:-0.716814 5:-0.316451 6:-0.392737 7:-0.456221 8:-0.456901 
-3.0 2:0.324324 3:0.159664 4:-0.769912 5:-0.507349 6:-0.587761 7:-0.56287 8:-0.644245 
-3.0 1:-1.0 2:0.337838 3:0.327731 4:-0.725664 5:-0.156012 6:-0.311365 7:-0.448321 8:-0.319382 
-3.0 2:0.337838 3:0.344538 4:-0.734513 5:-0.217284 6:-0.27505 7:-0.329822 8:-0.464873 
-3.0 1:-1.0 2:0.337838 3:0.361345 4:-0.699115 5:-0.361431 6:-0.453262 7:-0.491771 8:-0.576482 
-3.0 1:-1.0 2:0.351351 3:0.411765 4:-0.716814 5:-0.212325 6:-0.334902 7:-0.278473 8:-0.425012 
-3.0 2:0.364865 3:0.361345 4:-0.734513 5:-0.211263 6:-0.251513 7:-0.407505 8:-0.425012 
-3.0 2:0.364865 3:0.361345 4:-0.681416 5:-0.256596 6:-0.450572 7:-0.317972 8:-0.452915 
-3.0 2:0.364865 3:0.327731 4:-0.743363 5:-0.196033 6:-0.250168 7:-0.421988 8:-0.425012 
3.0 1:-1.0 2:0.391892 3:0.378151 4:-0.725664 5:-0.196742 6:-0.295898 7:-0.312706 8:-0.454908 
-3.0 1:-1.0 2:0.391892 3:0.394958 4:-0.716814 5:-0.147158 6:-0.357095 7:-0.362739 8:-0.387145 
-3.0 2:0.391892 3:0.344538 4:-0.743363 5:-0.248451 6:-0.308003 7:-0.357472 8:-0.504733 
3.0 2:0.405405 3:0.394958 4:-0.725664 5:-0.207367 6:-0.394082 7:-0.532587 8:-0.694071 
3.0 2:0.405405 3:0.327731 4:-0.734513 5:-0.212325 6:-0.212508 7:-0.420671 8:-0.504733 
3.0 1:-1.0 2:0.432432 3:0.394958 4:-0.707965 5:-0.129095 6:-0.190989 7:-0.311389 8:-0.42003 
3.0 1:-1.0 2:0.445946 3:0.394958 4:-0.734513 5:-0.177971 6:-0.241426 7:-0.321922 8:-0.388142 
-3.0 2:0.459459 3:0.428571 4:-0.716814 5:-0.11422 6:-0.214526 7:-0.317972 8:-0.345291 
-3.0 1:-1.0 2:0.486486 3:0.462185 4:-0.690265 5:-0.0575527 6:-0.234028 7:-0.287689 8:-0.195815 
-3.0 2:0.486486 3:0.411765 4:-0.690265 5:-0.191429 6:-0.361802 7:-0.349572 8:-0.307424 
-3.0 2:0.486486 3:0.495798 4:-0.707965 5:-0.0890738 6:-0.230666 7:-0.202107 8:-0.375187 
-3.0 2:0.486486 3:0.445378 4:-0.646018 5:-0.0239065 6:-0.215198 7:-0.206057 8:-0.203787 
-3.0 1:-1.0 2:0.5 3:0.445378 4:-0.725664 5:-0.0961573 6:-0.144586 7:-0.277156 8:-0.385152 
-3.0 1:-1.0 2:0.5 3:0.428571 4:-0.734513 5:-0.166637 6:-0.303968 7:-0.348255 8:-0.358246 
-3.0 2:0.527027 3:0.495798 4:-0.690265 5:-0.0139897 6:-0.337592 7:-0.235023 8:-0.20578 
-3.0 1:-1.0 2:0.540541 3:0.563025 4:-0.690265 5:0.104303 6:-0.0477471 7:-0.0651745 8:-0.20578 
-3.0 2:0.540541 3:0.512605 4:-0.707965 5:0.0132814 6:-0.0813719 7:-0.190257 8:-0.333333 
-3.0 2:0.540541 3:0.546218 4:-0.734513 5:-0.142908 6:-0.308675 7:-0.460171 8:-0.235675 
-3.0 1:-1.0 2:0.554054 3:0.478992 4:-0.716814 5:-0.0777404 6:-0.234701 7:-0.179724 8:-0.260588 
-3.0 1:-1.0 2:0.554054 3:0.563025 4:-0.628319 5:0.187533 6:-0.104909 7:-0.190257 8:-0.0861983 
-3.0 1:-1.0 2:0.554054 3:0.579832 4:-0.672566 5:0.147512 6:-0.107599 7:-0.152074 8:-0.0523169 
3.0 2:0.567568 3:0.361345 4:-0.716814 5:0.0568443 6:-0.0739744 7:-0.129691 8:-0.639263 
-3.0 1:-1.0 2:0.581081 3:0.613445 4:-0.663717 5:0.125199 6:-0.137189 7:-0.219223 8:0.0284006 
-3.0 1:-1.0 2:0.581081 3:0.478992 4:-0.654867 5:0.151408 6:-0.202421 7:-0.0546412 8:-0.0363727 
-3.0 2:0.581081 3:0.411765 4:-0.681416 5:-0.0313441 6:-0.139206 7:-0.227123 8:-0.335326 
-3.0 2:0.621622 3:0.731092 4:-0.60177 5:0.12272 6:-0.00739744 7:-0.21264 8:-0.136024 
-3.0 2:0.621622 3:0.714286 4:-0.654867 5:0.300159 6:0.0268998 7:-0.0493746 8:0.099153 
-3.0 1:-1.0 2:0.662162 3:0.579832 4:-0.690265 5:0.203117 6:0.108944 7:-0.0480579 8:-0.195815 
-3.0 1:-1.0 2:0.662162 3:0.512605 4:-0.646018 5:0.324597 6:0.199731 7:0.0559579 8:-0.0463378 
-3.0 2:0.675676 3:0.613445 4:-0.690265 5:0.300868 6:0.0793544 7:0.0414747 8:-4.98256E-4 
-3.0 1:-1.0 2:0.72973 3:0.714286 4:-0.690265 5:0.381619 6:0.0268998 7:0.100724 8:-0.178874 
-3.0 2:0.783784 3:0.831933 4:-0.610619 5:0.808394 6:0.523201 7:0.15734 8:0.192825 
-3.0 1:1.0 2:-0.675676 3:-0.680672 4:-0.920354 5:-0.974854 6:-0.977135 7:-0.985517 8:-0.981066 
-3.0 1:1.0 2:-0.540541 3:-0.579832 4:-0.884956 5:-0.951124 6:-0.960995 7:-0.967084 8:-0.96014 
3.0 1:1.0 2:-0.486486 3:-0.529412 4:-0.902655 5:-0.941916 6:-0.952253 7:-0.955234 8:-0.953164 
-3.0 1:1.0 2:-0.283784 3:-0.294118 4:-0.858407 5:-0.858686 6:-0.880296 7:-0.876234 8:-0.893373 
-3.0 1:1.0 2:-0.0945946 3:-0.092437 4:-0.823009 5:-0.77156 6:-0.823806 7:-0.811718 8:-0.791729 
-3.0 1:1.0 2:-0.0675676 3:-0.142857 4:-0.831858 5:-0.80379 6:-0.832549 7:-0.867018 8:-0.827603 
-3.0 1:-1.0 2:-0.0405405 3:-0.0588235 4:-0.787611 5:-0.720205 6:-0.734364 7:-0.773535 8:-0.796712 
-3.0 1:1.0 2:-0.027027 3:-0.0756303 4:-0.80531 5:-0.708872 6:-0.72495 7:-0.748519 8:-0.811659 
-3.0 1:1.0 3:-0.0420168 4:-0.743363 5:-0.693997 6:-0.739744 7:-0.763002 8:-0.743896 
-3.0 1:1.0 2:0.0135135 3:-0.0420168 4:-0.787611 5:-0.652559 6:-0.677202 7:-0.718236 8:-0.763827 
-3.0 1:1.0 2:0.0135135 3:-0.0756303 4:-0.823009 5:-0.710289 6:-0.739744 7:-0.737986 8:-0.807673 
-3.0 1:1.0 2:0.0135135 3:-0.0756303 4:-0.80531 5:-0.740393 6:-0.786147 7:-0.768269 8:-0.799701 
-3.0 1:-1.0 2:0.0675676 3:0.0252101 4:-0.814159 5:-0.616079 6:-0.638198 7:-0.63397 8:-0.745889 
-3.0 1:1.0 2:0.0675676 3:0.092437 4:-0.778761 5:-0.658226 6:-0.717552 7:-0.718236 8:-0.71998 
-3.0 1:1.0 2:0.0810811 3:-0.00840336 4:-0.80531 5:-0.678059 6:-0.724277 7:-0.740619 8:-0.743896 
-3.0 1:-1.0 2:0.121622 3:0.378151 4:-0.778761 5:-0.631309 6:-0.685272 7:-0.658986 8:-0.721973 
-3.0 1:1.0 2:0.148649 3:0.0756303 4:-0.752212 5:-0.612183 6:-0.667787 7:-0.706386 8:-0.687095 
-3.0 1:-1.0 2:0.148649 3:0.12605 4:-0.778761 5:-0.632017 6:-0.667115 7:-0.693219 8:-0.741903 
-3.0 2:0.162162 3:0.12605 4:-0.778761 5:-0.615725 6:-0.670477 7:-0.60632 8:-0.72297 
-3.0 2:0.175676 3:0.159664 4:-0.778761 5:-0.615371 6:-0.650303 7:-0.698486 8:-0.726956 
-3.0 2:0.202703 3:0.361345 4:-0.734513 5:-0.279617 6:-0.297915 7:-0.478604 8:-0.496761 
-3.0 2:0.283784 3:0.260504 4:-0.734513 5:-0.40641 6:-0.470074 7:-0.487821 8:-0.558545 
-3.0 1:-1.0 2:0.310811 3:0.310924 4:-0.716814 5:-0.366389 6:-0.436449 7:-0.428571 8:-0.561535 
-3.0 2:0.310811 3:0.294118 4:-0.725664 5:-0.547724 6:-0.549428 7:-0.536537 8:-0.514699 
-3.0 2:0.324324 3:0.327731 4:-0.690265 5:-0.286347 6:-0.400134 7:-0.375905 8:-0.475835 
-3.0 2:0.337838 3:0.310924 4:-0.743363 5:-0.379848 6:-0.447209 7:-0.429888 8:-0.564524 
-3.0 1:1.0 2:0.337838 3:0.294118 4:-0.734513 5:-0.466619 6:-0.540686 7:-0.579987 8:-0.556552 
-3.0 2:0.351351 3:0.361345 4:-0.743363 5:-0.296972 6:-0.37458 7:-0.398288 8:-0.474838 
-3.0 1:-1.0 2:0.364865 3:0.344538 4:-0.734513 5:-0.212325 6:-0.360457 7:-0.433838 8:-0.474838 
-3.0 1:-1.0 2:0.364865 3:0.344538 4:-0.654867 5:0.315389 6:0.26967 7:0.120474 8:-0.124066 
-3.0 2:0.364865 3:0.327731 4:-0.725664 5:-0.34266 6:-0.483524 7:-0.353522 8:-0.474838 
-3.0 1:-1.0 2:0.378378 3:0.378151 4:-0.716814 5:-0.324597 6:-0.383322 7:-0.379855 8:-0.474838 
-3.0 1:-1.0 2:0.391892 3:0.394958 4:-0.734513 5:-0.296264 6:-0.354405 7:-0.390388 8:-0.524664 
3.0 1:-1.0 2:0.418919 3:0.378151 4:-0.725664 5:-0.281388 6:-0.31271 7:-0.352205 8:-0.554559 
-3.0 2:0.432432 3:0.411765 4:-0.707965 5:-0.253409 6:-0.418964 7:-0.423305 8:-0.29148 
3.0 1:-1.0 2:0.445946 3:0.445378 4:-0.743363 5:-0.0589694 6:0.0517821 7:-0.407505 8:-0.431988 
-3.0 2:0.459459 3:0.411765 4:-0.725664 5:-0.273951 6:-0.400134 7:-0.342989 8:-0.434978 
-3.0 1:-1.0 2:0.472973 3:0.327731 4:-0.646018 5:-0.39366 6:-0.425017 7:-0.599737 8:-0.523667 
-3.0 2:0.472973 3:0.428571 4:-0.716814 5:-0.213388 6:-0.243443 7:-0.357472 8:-0.44295 
-3.0 1:-1.0 2:0.486486 3:0.428571 4:-0.672566 5:-0.146804 6:-0.211836 7:-0.237656 8:-0.432985 
-3.0 1:-1.0 2:0.5 3:0.394958 4:-0.725664 5:-0.199221 6:-0.209146 7:-0.445688 8:-0.430992 
-3.0 2:0.554054 3:0.495798 4:-0.663717 5:0.0355941 6:-0.138534 7:-0.108624 8:-0.156951 
3.0 1:-1.0 2:0.554054 3:0.495798 4:-0.725664 5:-0.149991 6:-0.241426 7:-0.175774 8:-0.41704 
-3.0 2:0.581081 3:0.596639 4:-0.672566 5:-0.0479901 6:-0.26698 7:-0.289006 8:-0.0543099 
-3.0 1:-1.0 2:0.594595 3:0.579832 4:-0.716814 5:-0.0359483 6:-0.155346 7:-0.266623 8:-0.325361 
-3.0 1:1.0 2:0.594595 3:0.495798 4:-0.699115 5:-0.0823446 6:-0.189644 7:-0.235023 8:-0.286497 
-3.0 2:0.608108 3:0.512605 4:-0.637168 5:-0.0348858 6:-0.184264 7:-0.20474 8:-0.299452 
3.0 2:0.648649 3:0.630252 4:-0.619469 5:0.204533 6:-0.108272 7:-0.0388413 8:-0.0592925 
-3.0 2:0.662162 3:0.630252 4:-0.725664 5:0.0285107 6:-0.162071 7:-0.183673 8:-0.22571 
3.0 1:-1.0 2:0.662162 3:0.596639 4:-0.628319 5:0.119887 6:-0.0121049 7:0.0651745 8:-0.232686 
-3.0 1:-1.0 2:0.689189 3:0.714286 4:-0.681416 5:0.238888 6:0.202421 7:-0.117841 8:-0.114101 
3.0 1:-1.0 2:0.72973 3:0.663866 4:-0.663717 5:0.418452 6:0.406187 7:0.0704411 8:0.00847035 
-3.0 2:0.743243 3:0.663866 4:-0.646018 5:0.412786 6:0.213853 7:0.233706 8:0.0363727 
3.0 1:-1.0 2:0.756757 3:0.512605 4:-0.672566 5:0.399681 6:0.378615 7:0.119157 8:-0.105132 
3.0 2:0.77027 3:0.747899 4:-0.672566 5:0.32991 6:0.250841 7:-6.58328E-4 8:-0.0413553 
-3.0 2:0.837838 3:0.915966 4:-0.628319 5:0.772977 6:0.607935 7:0.349572 8:0.349278 
-3.0 1:-1.0 2:0.837838 3:0.764706 4:-0.637168 5:0.419869 6:0.114324 7:0.0559579 8:0.18286 
-3.0 1:1.0 2:-0.702703 3:0.0756303 4:-0.787611 5:-0.672392 6:-0.737727 7:-0.726136 8:-0.704036 
-3.0 1:1.0 2:-0.540541 3:-0.495798 4:-0.893805 5:-0.947229 6:-0.955615 7:-0.96445 8:-0.96014 
3.0 1:1.0 2:-0.364865 3:-0.428571 4:-0.876106 5:-0.926687 6:-0.416274 7:-0.961817 8:-0.923269 
-3.0 1:1.0 2:-0.351351 3:-0.411765 4:-0.858407 5:-0.90402 6:-0.928043 7:-0.919684 8:-0.9143 
-3.0 1:1.0 2:-0.27027 3:-0.327731 4:-0.849558 5:-0.859394 6:-0.860121 7:-0.903884 8:-0.903338 
3.0 1:1.0 2:-0.256757 3:-0.327731 4:-0.840708 5:-0.874978 6:-0.886348 7:-0.921001 8:-0.898356 
-3.0 1:1.0 2:-0.22973 3:-0.277311 4:-0.849558 5:-0.862582 6:-0.883658 7:-0.909151 8:-0.875436 
-3.0 1:1.0 2:-0.189189 3:-0.210084 4:-0.831858 5:-0.85054 6:-0.872226 7:-0.893351 8:-0.881415 
3.0 1:1.0 2:-0.189189 3:-0.243697 4:-0.858407 5:-0.857978 6:-0.890383 7:-0.874918 8:-0.873443 
3.0 1:1.0 2:-0.175676 3:-0.277311 4:-0.858407 5:-0.852311 6:-0.885003 7:-0.890718 8:-0.863478 
3.0 1:1.0 2:-0.162162 3:-0.210084 4:-0.840708 5:-0.816186 6:-0.852051 7:-0.844635 8:-0.854509 
3.0 1:1.0 2:-0.162162 3:-0.243697 4:-0.849558 5:-0.847353 6:-0.870881 7:-0.901251 8:-0.869457 
-3.0 1:1.0 2:-0.162162 3:-0.243697 4:-0.840708 5:-0.839915 6:-0.863484 7:-0.890718 8:-0.872446 
-3.0 1:1.0 2:-0.135135 3:-0.277311 4:-0.823009 5:-0.789977 6:-0.806994 7:-0.840685 8:-0.839562 
-3.0 1:1.0 2:-0.121622 3:-0.210084 4:-0.823009 5:-0.811936 6:-0.839274 7:-0.842001 8:-0.850523 
-3.0 1:1.0 2:-0.0945946 3:-0.0588235 4:-0.80531 5:-0.767664 6:-0.790182 7:-0.815668 8:-0.664175 
3.0 1:1.0 2:-0.0135135 3:-0.0420168 4:-0.787611 5:-0.691163 6:-0.71688 7:-0.782752 8:-0.763827 
3.0 1:1.0 2:0.0135135 3:-0.0756303 4:-0.814159 5:-0.68408 6:-0.721587 7:-0.766952 8:-0.763827 
-3.0 2:0.027027 3:0.0420168 4:-0.79646 5:-0.696476 6:-0.753867 7:-0.716919 8:-0.754858 
3.0 1:1.0 2:0.027027 3:-0.0756303 4:-0.823009 5:-0.737914 6:-0.519839 7:-0.797235 8:-0.783757 
-3.0 2:0.0405405 3:0.0420168 4:-0.778761 5:-0.662476 6:-0.724277 7:-0.726136 8:-0.721973 
3.0 1:1.0 2:0.0540541 3:-0.0420168 4:-0.80531 5:-0.756331 6:-0.809684 7:-0.809085 8:-0.777778 
-3.0 1:1.0 2:0.135135 3:0.092437 4:-0.769912 5:-0.638392 6:-0.707465 7:-0.695853 8:-0.684106 
-3.0 1:-1.0 2:0.135135 3:0.142857 4:-0.787611 5:-0.609704 6:-0.700067 7:-0.639236 8:-0.670154 
-3.0 1:1.0 2:0.148649 3:0.0756303 4:-0.778761 5:-0.598017 6:-0.652993 7:-0.674786 8:-0.690085 
-3.0 1:1.0 2:0.162162 3:0.092437 4:-0.787611 5:-0.580662 6:-0.65232 7:-0.623436 8:-0.644245 
-3.0 1:1.0 2:0.189189 3:0.092437 4:-0.787611 5:-0.558704 6:-0.562206 7:-0.660303 8:-0.684106 
3.0 1:1.0 2:0.189189 3:0.226891 4:-0.761062 5:-0.497786 6:-0.548083 7:-0.62212 8:-0.59442 
3.0 1:1.0 2:0.22973 3:0.226891 4:-0.725664 5:-0.427661 6:-0.365837 7:-0.709019 8:-0.620329 
-3.0 1:1.0 2:0.27027 3:0.277311 4:-0.761062 5:-0.454932 6:-0.501009 7:-0.611587 8:-0.550573 
3.0 1:1.0 2:0.283784 3:0.260504 4:-0.743363 5:-0.442182 6:-0.497646 7:-0.55102 8:-0.558545 
-3.0 1:-1.0 2:0.297297 3:0.294118 4:-0.752212 5:-0.384806 6:-0.453934 7:-0.59052 8:-0.494768 
3.0 1:1.0 2:0.324324 3:0.294118 4:-0.690265 5:-0.382681 6:-0.444519 7:-0.448321 8:-0.584454 
-3.0 2:0.324324 3:0.327731 4:-0.743363 5:-0.399681 6:-0.434432 7:-0.557604 8:-0.554559 
-3.0 1:-1.0 2:0.324324 3:0.310924 4:-0.734513 5:-0.437577 6:-0.512441 7:-0.516787 8:-0.566517 
3.0 1:-1.0 2:0.324324 3:0.12605 4:-0.778761 5:-0.474411 6:-0.527909 7:-0.658986 8:-0.667165 
-3.0 1:1.0 2:0.337838 3:0.327731 4:-0.761062 5:-0.438994 6:-0.488231 7:-0.628703 8:-0.514699 
-3.0 2:0.337838 3:0.361345 4:-0.761062 5:-0.307597 6:-0.467384 7:-0.336406 8:-0.473842 
-3.0 1:-1.0 2:0.337838 3:0.277311 4:-0.778761 5:-0.366389 6:-0.486214 7:-0.518104 8:-0.454908 
3.0 2:0.351351 3:0.226891 4:-0.761062 5:-0.394369 6:-0.381305 7:-0.61422 8:-0.579472 
-3.0 2:0.351351 3:0.428571 4:-0.707965 5:-0.237825 6:-0.314055 7:-0.449638 8:-0.393124 
3.0 1:-1.0 2:0.364865 3:0.344538 4:-0.761062 5:-0.437932 6:-0.456624 7:-0.561554 8:-0.596413 
-3.0 2:0.364865 3:0.310924 4:-0.734513 5:-0.39366 6:-0.463349 7:-0.59052 8:-0.498754 
3.0 1:-1.0 2:0.378378 3:0.394958 4:-0.707965 5:-0.00336462 6:0.0746469 7:-0.398288 8:-0.415047 
-3.0 1:-1.0 2:0.378378 3:0.327731 4:-0.681416 5:-0.435098 6:-0.549428 7:-0.512837 8:-0.530643 
3.0 2:0.405405 3:0.378151 4:-0.725664 5:-0.274659 6:-0.376597 7:-0.706386 8:-0.395117 
-3.0 1:-1.0 2:0.432432 3:0.462185 4:-0.752212 5:-0.31043 6:-0.437794 7:-0.458855 8:-0.375187 
3.0 1:1.0 2:0.432432 3:0.277311 4:-0.769912 5:-0.362139 6:-0.420309 7:-0.54312 8:-0.484803 
-3.0 2:0.432432 3:0.411765 4:-0.690265 5:-0.239242 6:-0.378615 7:-0.423305 8:-0.335326 
3.0 2:0.432432 3:0.394958 4:-0.716814 5:-0.23393 6:-0.274378 7:-0.418038 8:-0.454908 
3.0 1:-1.0 2:0.445946 3:0.428571 4:-0.707965 5:-0.120241 6:-0.147949 7:-0.324556 8:-0.395117 
-3.0 1:-1.0 2:0.445946 3:0.428571 4:-0.699115 5:-0.196033 6:-0.387357 7:-0.237656 8:-0.31141 
-3.0 1:-1.0 2:0.459459 3:0.394958 4:-0.707965 5:-0.202408 6:-0.400807 7:-0.423305 8:-0.325361 
3.0 2:0.459459 3:0.411765 4:-0.707965 5:-0.276784 6:-0.341627 7:-0.486504 8:-0.398107 
-3.0 1:-1.0 2:0.459459 3:0.428571 4:-0.690265 5:-0.209492 6:-0.401479 7:-0.159974 8:-0.405082 
-3.0 2:0.459459 3:0.411765 4:-0.725664 5:-0.211617 6:-0.35037 7:-0.444371 8:-0.295466 
-3.0 1:-1.0 2:0.472973 3:0.529412 4:-0.690265 5:-0.0936781 6:-0.232683 7:-0.373272 8:-0.22571 
3.0 1:-1.0 2:0.472973 3:0.478992 4:-0.681416 5:-0.112095 6:-0.225958 7:-0.332456 8:-0.295466 
-3.0 2:0.472973 3:0.411765 4:-0.716814 5:-0.201346 6:-0.378615 7:-0.294273 8:-0.345291 
-3.0 1:-1.0 2:0.486486 3:0.344538 4:-0.699115 5:-0.234992 6:-0.334902 7:-0.383805 8:-0.375187 
-3.0 2:0.486486 3:0.546218 4:-0.716814 5:-0.106074 6:-0.232683 7:-0.142857 8:-0.363229 
3.0 2:0.486486 3:0.428571 4:-0.725664 5:-0.148929 6:-0.212508 7:-0.371955 8:-0.368211 
-3.0 2:0.5 3:0.445378 4:-0.699115 5:-0.0660528 6:-0.201748 7:-0.0928242 8:-0.315396 
3.0 1:-1.0 2:0.5 3:0.445378 4:-0.743363 5:-0.249159 6:-0.320108 7:-0.531271 8:-0.332337 
3.0 1:-1.0 2:0.5 3:0.478992 4:-0.716814 5:-0.2272 6:-0.332885 7:-0.419355 8:-0.375187 
-3.0 2:0.513514 3:0.495798 4:-0.707965 5:0.0324066 6:-0.0531271 7:-0.304806 8:-0.22571 
-3.0 1:-1.0 2:0.513514 3:0.411765 4:-0.699115 5:-0.156012 6:-0.301278 7:-0.291639 8:-0.272546 
-3.0 1:-1.0 2:0.513514 3:0.529412 4:-0.725664 5:-0.302993 6:-0.456624 7:-0.407505 8:-0.385152 
3.0 1:-1.0 2:0.527027 3:0.714286 4:-0.59292 5:0.0759695 6:-0.135171 7:-0.0217248 8:-0.193822 
-3.0 1:-1.0 2:0.527027 3:0.579832 4:-0.681416 5:-0.0710112 6:-0.347007 7:-0.21264 8:-0.190832 
-3.0 1:-1.0 2:0.554054 3:0.529412 4:-0.663717 5:0.0908447 6:-0.0390047 7:-0.0177749 8:-0.255605 
-3.0 2:0.567568 3:0.579832 4:-0.663717 5:-0.0384275 6:-0.242771 7:-0.154707 8:-0.208769 
0.9600142911408922 1:-1.0 2:0.567568 3:0.613445 4:-0.637168 5:0.16345 6:-0.0188299 7:-0.0546412 8:-0.0861983 
-3.0 2:0.567568 3:0.563025 4:-0.663717 5:0.0288649 6:-0.194351 7:0.0164582 8:-0.239661 
-3.0 2:0.594595 3:0.596639 4:-0.681416 5:0.0547193 6:-0.147949 7:-0.100724 8:-0.136024 
-3.0 2:0.608108 3:0.512605 4:-0.690265 5:-0.282805 6:-0.412912 7:-0.287689 8:-0.256602 
3.0 1:-1.0 2:0.621622 3:0.647059 4:-0.672566 5:0.229325 6:0.176866 7:-0.175774 8:-0.0682611 
-3.0 1:-1.0 2:0.648649 3:0.647059 4:-0.637168 5:0.268284 6:0.0941493 7:0.0941409 8:-0.0842053 
-3.0 2:0.675676 3:0.714286 4:-0.663717 5:0.247742 6:0.00268998 7:0.0493746 8:-0.0114599 
3.0 2:0.689189 3:0.647059 4:-0.769912 5:0.100761 6:-0.0968393 7:-0.0164582 8:-0.61435 
-3.0 1:-1.0 2:0.702703 3:0.714286 4:-0.0884956 5:0.564016 6:0.488231 7:0.279789 8:0.017439 
3.0 2:0.702703 3:0.731092 4:-0.681416 5:0.0855321 6:0.289845 7:0.103357 8:-0.145989 
3.0 2:0.743243 3:0.747899 4:-0.699115 5:0.36816 6:0.226631 7:0.0230415 8:0.0134529 
-3.0 2:0.756757 3:0.831933 4:-0.646018 5:0.228971 6:-0.063887 7:-0.0572745 8:0.18286 
-3.0 2:0.77027 3:0.764706 4:-0.663717 5:0.229325 6:-0.0887693 7:0.142857 8:0.0333832 
-3.0 2:0.810811 3:0.731092 4:-0.619469 5:0.59235 6:0.554136 7:0.17314 8:0.109118 
3.0 2:0.824324 3:0.865546 4:-0.584071 5:0.775456 6:0.655683 7:0.365372 8:0.216741 
-3.0 1:1.0 2:-0.581081 3:-0.630252 4:-0.893805 5:-0.964937 6:-0.97579 7:-0.963134 8:-0.931241 
-3.0 1:1.0 2:-0.216216 3:-0.327731 4:-0.858407 5:-0.860811 6:-0.895763 7:-0.910467 8:-0.897359 
-3.0 1:1.0 2:-0.162162 3:-0.176471 4:-0.840708 5:-0.826457 6:-0.836584 7:-0.885451 8:-0.86846 
-3.0 1:1.0 2:-0.135135 3:-0.193277 4:-0.840708 5:-0.787144 6:-0.809011 7:-0.826201 8:-0.850523 
-3.0 1:1.0 2:-0.108108 3:-0.176471 4:-0.814159 5:-0.786081 6:-0.805649 7:-0.840685 8:-0.842551 
-3.0 1:1.0 2:-0.0945946 3:-0.109244 4:-0.831858 5:-0.795644 6:-0.811701 7:-0.835418 8:-0.857499 
-3.0 1:1.0 2:-0.0540541 3:-0.0420168 4:-0.814159 5:-0.725872 6:-0.73033 7:-0.763002 8:-0.827603 
-3.0 1:1.0 2:-0.0405405 3:-0.0420168 4:-0.814159 5:-0.689393 6:-0.680565 7:-0.805135 8:-0.788739 
-3.0 1:1.0 2:-0.0135135 3:-0.0420168 4:-0.814159 5:-0.740039 6:-0.780767 7:-0.790652 8:-0.800698 
3.0 1:1.0 2:-0.0135135 3:0.0420168 4:-0.80531 5:-0.685143 6:-0.714862 7:-0.766952 8:-0.776781 
-3.0 1:-1.0 2:0.0135135 3:-0.0588235 4:-0.778761 5:-0.684434 6:-0.710155 7:-0.669519 8:-0.783757 
3.0 1:1.0 2:0.0675676 3:-0.0252101 4:-0.752212 5:-0.674517 6:-0.693342 7:-0.710336 8:-0.771799 
-3.0 1:1.0 2:0.0675676 3:-0.00840336 4:-0.778761 5:-0.695768 6:-0.745797 7:-0.694536 8:-0.768809 
-3.0 1:1.0 2:0.0675676 3:0.00840336 4:-0.787611 5:-0.740393 6:-0.831876 7:-0.781435 8:-0.730942 
-3.0 2:0.0810811 3:0.0420168 4:-0.79646 5:-0.600496 6:-0.623403 7:-0.693219 8:-0.736921 
-3.0 1:1.0 2:0.108108 3:0.092437 4:-0.787611 5:-0.666726 6:-0.72226 7:-0.718236 8:-0.710015 
-3.0 1:-1.0 2:0.108108 3:0.12605 4:-0.849558 5:-0.545599 6:-0.605245 7:-0.730086 8:-0.608371 
-3.0 1:-1.0 2:0.108108 3:0.0588235 4:-0.769912 5:-0.628829 6:-0.667115 7:-0.724819 8:-0.693074 
-3.0 2:0.135135 3:0.092437 4:-0.787611 5:-0.595537 6:-0.64425 7:-0.662936 8:-0.715994 
-3.0 1:1.0 2:0.189189 3:0.159664 4:-0.778761 5:-0.602975 6:-0.665098 7:-0.673469 8:-0.664175 
-3.0 2:0.283784 3:0.260504 4:-0.752212 5:-0.40641 6:-0.496974 7:-0.427255 8:-0.615346 
-3.0 1:-1.0 2:0.337838 3:0.310924 4:-0.734513 5:-0.30193 6:-0.32347 7:-0.456221 8:-0.506726 
-3.0 1:-1.0 2:0.351351 3:0.361345 4:-0.707965 5:-0.352931 6:-0.462677 7:-0.352205 8:-0.527653 
-3.0 1:-1.0 2:0.378378 3:0.344538 4:-0.734513 5:-0.35966 6:-0.450572 7:-0.395655 8:-0.537618 
-3.0 1:-1.0 2:0.391892 3:0.294118 4:-0.734513 5:-0.383389 6:-0.480834 7:-0.435155 8:-0.514699 
-3.0 2:0.391892 3:0.361345 4:-0.743363 5:-0.299805 6:-0.392065 7:-0.420671 8:-0.454908 
-3.0 2:0.405405 3:0.344538 4:-0.716814 5:-0.264742 6:-0.39341 7:-0.302172 8:-0.428999 
-3.0 1:-1.0 2:0.418919 3:0.344538 4:-0.725664 5:-0.332035 6:-0.414257 7:-0.452271 8:-0.504733 
-3.0 1:-1.0 2:0.418919 3:0.378151 4:-0.646018 5:-0.109616 6:-0.139879 7:-0.478604 8:-0.29148 
-3.0 2:0.432432 3:0.445378 4:-0.716814 5:-0.150699 6:-0.440484 7:-0.24424 8:-0.24564 
-3.0 2:0.432432 3:0.546218 4:-0.699115 5:-0.0883655 6:-0.194351 7:-0.225806 8:-0.342302 
-3.0 1:1.0 2:0.459459 3:0.411765 4:-0.769912 5:-0.40464 6:-0.526564 7:-0.497038 8:-0.50274 
-3.0 2:0.472973 3:0.277311 4:-0.725664 5:-0.284576 6:-0.359785 7:-0.379855 8:-0.454908 
-3.0 1:-1.0 2:0.472973 3:0.428571 4:-0.707965 5:-0.241721 6:-0.353732 7:-0.382488 8:-0.381166 
-3.0 2:0.5 3:0.495798 4:-0.690265 5:-0.214804 6:-0.373235 7:-0.295589 8:-0.347285 
-3.0 1:-1.0 2:0.5 3:0.344538 4:-0.734513 5:-0.199929 6:-0.354405 7:-0.278473 8:-0.395117 
3.0 1:-1.0 2:0.5 3:0.428571 4:-0.734513 5:-0.101116 6:-0.112979 7:-0.362739 8:-0.385152 
-3.0 1:-1.0 2:0.513514 3:0.529412 4:-0.672566 5:-0.074907 6:-0.26967 7:-0.163924 8:-0.251619 
-3.0 2:0.527027 3:0.546218 4:-0.637168 5:0.0848238 6:-0.108944 7:-0.120474 8:-0.200797 
-3.0 2:0.554054 3:0.647059 4:-0.690265 5:0.0784487 6:-0.207801 7:-0.142857 8:-0.0164425 
-3.0 1:-1.0 2:0.554054 3:0.445378 4:-0.752212 5:-0.169116 6:-0.362475 7:-0.360105 8:-0.574489 
-3.0 2:0.594595 3:0.546218 4:-0.681416 5:-0.0175314 6:-0.201748 7:-0.148124 8:-0.215745 
-3.0 1:-1.0 2:0.608108 3:0.495798 4:-0.663717 5:0.0745529 6:-0.172831 7:0.0204082 8:-0.175884 
3.0 1:-1.0 2:0.635135 3:0.546218 4:-0.699115 5:0.140074 6:0.130464 7:-0.195523 8:-0.215745 
3.0 1:-1.0 2:0.662162 3:0.579832 4:-0.646018 5:0.261201 6:0.231338 7:-0.125741 8:-0.0842053 
3.0 2:0.689189 3:0.663866 4:-0.699115 5:0.191429 6:0.0121049 7:-0.14154 8:-0.365222 
-3.0 1:-1.0 2:0.689189 3:0.680672 4:-0.646018 5:0.31468 6:-0.0195024 7:-0.036208 8:0.18286 
3.0 1:-1.0 2:0.756757 3:0.747899 4:-0.575221 5:0.564016 6:0.815736 7:0.0862409 8:-0.00348779 
-3.0 1:1.0 2:-0.297297 3:-0.327731 4:-0.858407 5:-0.882415 6:-0.895091 7:-0.907834 8:-0.903338 
-3.0 1:1.0 2:-0.256757 3:-0.310924 4:-0.867257 5:-0.873915 6:-0.880296 7:-0.936801 8:-0.893373 
3.0 1:1.0 2:-0.22973 3:-0.277311 4:-0.831858 5:-0.859749 6:-0.903161 7:-0.853851 8:-0.881415 
-3.0 1:1.0 2:-0.175676 3:-0.210084 4:-0.823009 5:-0.83354 6:-0.856086 7:-0.897301 8:-0.839562 
3.0 1:1.0 2:-0.0945946 3:-0.176471 4:-0.840708 5:-0.803081 6:-0.811701 7:-0.849901 8:-0.853513 
-3.0 1:1.0 2:-0.027027 3:-0.092437 4:-0.80531 5:-0.741456 6:-0.786819 7:-0.790652 8:-0.793722 
-3.0 1:1.0 2:0.0135135 3:-0.0588235 4:-0.80531 5:-0.704268 6:-0.757902 7:-0.777485 8:-0.734928 
3.0 1:1.0 2:0.027027 3:0.0252101 4:-0.79646 5:-0.677705 6:-0.720915 7:-0.776169 8:-0.710015 
-3.0 1:-1.0 2:0.0810811 3:0.0252101 4:-0.823009 5:-0.697893 6:-0.737054 7:-0.740619 8:-0.779771 
-3.0 1:-1.0 2:0.0945946 3:0.00840336 4:-0.716814 5:-0.672747 6:-0.704102 7:-0.722186 8:-0.526657 
-3.0 1:1.0 2:0.108108 3:0.0756303 4:-0.769912 5:-0.574641 6:-0.60659 7:-0.662936 8:-0.684106 
-3.0 1:1.0 2:0.135135 3:0.159664 4:-0.814159 5:-0.574996 6:-0.664425 7:-0.668203 8:-0.624315 
-3.0 1:1.0 2:0.148649 3:0.159664 4:-0.787611 5:-0.565079 6:-0.650303 7:-0.624753 8:-0.617339 
-3.0 1:1.0 2:0.175676 3:0.142857 4:-0.769912 5:-0.574641 6:-0.623403 7:-0.624753 8:-0.68012 
-3.0 2:0.189189 3:0.0756303 4:-0.80531 5:-0.571808 6:-0.597176 7:-0.656353 8:-0.704036 
3.0 1:1.0 2:0.189189 3:-0.00840336 4:-0.814159 5:-0.665309 6:-0.714862 7:-0.677419 8:-0.748879 
-3.0 1:1.0 2:0.189189 3:0.12605 4:-0.778761 5:-0.597308 6:-0.681237 7:-0.668203 8:-0.63428 
-3.0 1:1.0 2:0.202703 3:0.12605 4:-0.769912 5:-0.608642 6:-0.6846 7:-0.712969 8:-0.625311 
-3.0 1:-1.0 2:0.216216 3:0.210084 4:-0.743363 5:-0.402869 6:-0.527236 7:-0.57077 8:-0.429995 
-3.0 1:1.0 2:0.216216 3:0.159664 4:-0.752212 5:-0.538162 6:-0.591123 7:-0.579987 8:-0.666168 
-3.0 1:-1.0 2:0.216216 3:0.159664 4:-0.725664 5:-0.50062 6:-0.622058 7:-0.57867 8:-0.554559 
-3.0 1:1.0 2:0.22973 3:0.226891 4:-0.787611 5:-0.578891 6:-0.6577 7:-0.63002 8:-0.650224 
3.0 1:1.0 2:0.22973 3:0.226891 4:-0.769912 5:-0.40889 6:-0.497646 7:-0.561554 8:-0.506726 
-3.0 1:1.0 2:0.243243 3:0.159664 4:-0.769912 5:-0.536037 6:-0.62004 7:-0.57472 8:-0.65421 
-3.0 1:1.0 2:0.256757 3:0.226891 4:-0.752212 5:-0.556933 6:-0.664425 7:-0.691903 8:-0.534629 
-3.0 1:1.0 2:0.27027 3:0.226891 4:-0.778761 5:-0.493536 6:-0.519839 7:-0.706386 8:-0.564524 
3.0 1:1.0 2:0.283784 3:0.226891 4:-0.761062 5:-0.423411 6:-0.464022 7:-0.61027 8:-0.544594 
-3.0 1:1.0 2:0.283784 3:0.210084 4:-0.743363 5:-0.447848 6:-0.499664 7:-0.579987 8:-0.561535 
-3.0 1:1.0 2:0.283784 3:0.243697 4:-0.734513 5:-0.458474 6:-0.545393 7:-0.537854 8:-0.584454 
-3.0 2:0.337838 3:0.327731 4:-0.761062 5:-0.448557 6:-0.551446 7:-0.514154 8:-0.584454 
-3.0 1:-1.0 2:0.337838 3:0.327731 4:-0.752212 5:-0.438286 6:-0.546066 7:-0.611587 8:-0.514699 
-3.0 1:1.0 2:0.337838 3:0.310924 4:-0.725664 5:-0.387285 6:-0.503026 7:-0.552337 8:-0.444943 
3.0 1:1.0 2:0.337838 3:0.310924 4:-0.743363 5:-0.47689 6:-0.589778 7:-0.548387 8:-0.639263 
-3.0 1:-1.0 2:0.351351 3:0.344538 4:-0.707965 5:-0.387285 6:-0.494956 7:-0.526004 8:-0.468859 
-3.0 1:-1.0 2:0.351351 3:0.394958 4:-0.672566 5:-0.303701 6:-0.497646 7:-0.428571 8:-0.295466 
-3.0 2:0.351351 3:0.378151 4:-0.654867 5:-0.295555 6:-0.440484 7:-0.350889 8:-0.0662681 
-3.0 1:1.0 2:0.351351 3:0.310924 4:-0.699115 5:-0.433682 6:-0.533961 7:-0.615537 8:-0.504733 
-3.0 2:0.351351 3:0.277311 4:-0.734513 5:-0.271472 6:-0.381977 7:-0.427255 8:-0.285501 
3.0 1:-1.0 2:0.351351 3:0.294118 4:-0.716814 5:-0.320347 6:-0.351715 7:-0.564187 8:-0.454908 
-3.0 2:0.364865 3:0.277311 4:-0.734513 5:-0.410661 6:-0.425689 7:-0.60237 8:-0.544594 
3.0 1:1.0 2:0.391892 3:0.361345 4:-0.743363 5:-0.362848 6:-0.437794 7:-0.531271 8:-0.484803 
-3.0 2:0.405405 3:0.277311 4:-0.734513 5:-0.36391 6:-0.439812 7:-0.553654 8:-0.474838 
-3.0 1:1.0 2:0.405405 3:0.361345 4:-0.734513 5:-0.411015 6:-0.494284 7:-0.494404 8:-0.534629 
-3.0 2:0.418919 3:0.361345 4:-0.725664 5:-0.311847 6:-0.427034 7:-0.462804 8:-0.405082 
-3.0 1:-1.0 2:0.418919 3:0.428571 4:-0.707965 5:-0.352222 6:-0.445192 7:-0.483871 8:-0.45989 
-3.0 1:1.0 2:0.418919 3:0.428571 4:-0.699115 5:-0.351514 6:-0.490249 7:-0.415405 8:-0.425012 
-3.0 2:0.418919 3:0.428571 4:-0.681416 5:-0.247388 6:-0.396772 7:-0.354839 8:-0.355257 
-3.0 1:-1.0 2:0.432432 3:0.411765 4:-0.743363 5:-0.375243 6:-0.485541 7:-0.499671 8:-0.464873 
-3.0 2:0.432432 3:0.428571 4:-0.752212 5:-0.299451 6:-0.364492 7:-0.383805 8:-0.524664 
-3.0 2:0.432432 3:0.394958 4:-0.725664 5:-0.311493 6:-0.472764 7:-0.411455 8:-0.336323 
3.0 2:0.445946 3:0.445378 4:-0.734513 5:-0.12272 6:-0.190989 7:-0.233706 8:-0.388142 
-3.0 1:-1.0 2:0.445946 3:0.394958 4:-0.716814 5:-0.277492 6:-0.397445 7:-0.383805 8:-0.416044 
-3.0 2:0.445946 3:0.411765 4:-0.716814 5:-0.211263 6:-0.485541 7:-0.414088 8:-0.247633 
-3.0 1:-1.0 2:0.445946 3:0.394958 4:-0.699115 5:-0.209138 6:-0.298588 7:-0.368005 8:-0.385152 
-3.0 2:0.445946 3:0.445378 4:-0.681416 5:-0.0950947 6:-0.229993 7:-0.249506 8:-0.295466 
3.0 1:1.0 2:0.472973 3:0.445378 4:-0.681416 5:-0.183991 6:-0.337592 7:-0.327189 8:-0.375187 
3.0 2:0.472973 3:0.546218 4:-0.725664 5:-0.0625111 6:-0.102219 7:-0.315339 8:-0.335326 
3.0 2:0.472973 3:0.428571 4:-0.681416 5:-0.136179 6:-0.218561 7:-0.291639 8:-0.379173 
-3.0 1:1.0 2:0.472973 3:0.394958 4:-0.752212 5:-0.394723 6:-0.517821 7:-0.579987 8:-0.415047 
3.0 1:-1.0 2:0.472973 3:0.428571 4:-0.734513 5:-0.104657 6:-0.156019 7:-0.323239 8:-0.387145 
-3.0 2:0.472973 3:0.428571 4:-0.690265 5:-0.264388 6:-0.37727 7:-0.415405 8:-0.405082 
-3.0 1:-1.0 2:0.486486 3:0.495798 4:-0.699115 5:-0.223304 6:-0.376597 7:-0.421988 8:-0.297459 
3.0 1:1.0 2:0.486486 3:0.394958 4:-0.725664 5:-0.154595 6:-0.136516 7:-0.460171 8:-0.376183 
-3.0 1:1.0 2:0.486486 3:0.445378 4:-0.734513 5:-0.261909 6:-0.412239 7:-0.246873 8:-0.448929 
-3.0 1:-1.0 2:0.5 3:0.512605 4:-0.699115 5:-0.228263 6:-0.380632 7:-0.300856 8:-0.405082 
-3.0 2:0.5 3:0.495798 4:-0.681416 5:-0.153887 6:-0.31002 7:-0.389072 8:-0.206776 
3.0 1:1.0 2:0.513514 3:0.495798 4:-0.707965 5:0.0533026 6:-0.0396772 7:-0.0941409 8:-0.282511 
-3.0 2:0.513514 3:0.462185 4:-0.699115 5:-0.107845 6:-0.277068 7:-0.299539 8:-0.24564 
-3.0 2:0.527027 3:0.512605 4:-0.707965 5:-0.134762 6:-0.299933 7:-0.291639 8:-0.285501 
-3.0 1:-1.0 2:0.527027 3:0.546218 4:-0.681416 5:-0.118116 6:-0.264963 7:-0.231073 8:-0.26856 
3.0 1:-1.0 2:0.540541 3:0.495798 4:-0.663717 5:0.103241 6:-0.00470746 7:-0.0230415 8:-0.236672 
-3.0 1:-1.0 2:0.540541 3:0.529412 4:-0.663717 5:0.0430317 6:-0.187626 7:-0.0928242 8:-0.0463378 
-0.5989911017372596 1:-1.0 2:0.540541 3:0.529412 4:-0.654867 5:-0.132991 6:-0.209818 7:-0.418038 8:-0.256602 
-3.0 1:-1.0 2:0.540541 3:0.495798 4:-0.690265 5:-0.054011 6:-0.256221 7:-0.190257 8:-0.175884 
-3.0 1:-1.0 2:0.540541 3:0.445378 4:-0.734513 5:-0.136179 6:-0.235373 7:-0.281106 8:-0.345291 
3.0 2:0.540541 3:0.428571 4:-0.663717 5:-0.0302816 6:-0.0699395 7:-0.23634 8:-0.305431 
-3.0 1:-1.0 2:0.554054 3:0.529412 4:-0.716814 5:-0.0214273 6:-0.142569 7:-0.23634 8:-0.272546 
-3.0 2:0.567568 3:0.529412 4:-0.734513 5:-0.262617 6:-0.356422 7:-0.414088 8:-0.395117 
3.0 2:0.581081 3:0.613445 4:-0.690265 5:0.0734903 6:-0.0450572 7:-0.178407 8:-0.175884 
-3.0 1:-1.0 2:0.581081 3:0.596639 4:-0.654867 5:0.0968656 6:-0.126429 7:-0.133641 8:-0.0164425 
3.0 1:-1.0 2:0.581081 3:0.529412 4:-0.707965 5:0.158491 6:0.0322798 7:-0.0678078 8:-0.220727 
3.0 2:0.594595 3:0.512605 4:-0.716814 5:-0.0865947 6:-0.152656 7:-0.231073 8:-0.365222 
3.0 1:-1.0 2:0.608108 3:0.512605 4:-0.716814 5:-0.10997 6:-0.160054 7:-0.182357 8:-0.389138 
3.0 1:-1.0 2:0.608108 3:0.563025 4:-0.707965 5:-0.0168231 6:-0.0450572 7:-0.246873 8:-0.405082 
3.0 2:0.608108 3:0.663866 4:-0.725664 5:0.107845 6:0.152656 7:-0.108624 8:-0.297459 
3.0 1:-1.0 2:0.621622 3:0.579832 4:-0.716814 5:-0.0922614 6:-0.232011 7:-0.275839 8:-0.296462 
-3.0 2:0.621622 3:0.529412 4:-0.654867 5:-0.0224898 6:-0.188299 7:-0.16524 8:-0.212755 
-3.0 1:-1.0 2:0.635135 3:0.563025 4:-0.654867 5:0.0281565 6:-0.205111 7:0.0283081 8:-0.180867 
3.0 1:-1.0 2:0.648649 3:0.563025 4:-0.734513 5:-0.0285107 6:-0.0349697 7:-0.229756 8:-0.365222 
-3.0 1:-1.0 2:0.689189 3:0.714286 4:-0.690265 5:0.313618 6:0.134499 7:0.0348914 8:0.0732436 
3.0 2:0.689189 3:0.613445 4:-0.690265 5:0.254471 6:-0.0860794 7:0.262673 8:0.017439 
3.0 2:0.702703 3:0.647059 4:-0.699115 5:0.117762 6:-0.135844 7:0.20079 8:-0.474838 
3.0 2:0.716216 3:0.731092 4:-0.654867 5:0.401452 6:0.333557 7:0.295589 8:-0.0463378 
-3.0 1:-1.0 2:0.716216 3:0.697479 4:-0.610619 5:0.42589 6:0.238063 7:0.194207 8:0.125062 
3.0 1:-1.0 2:0.743243 3:0.663866 4:-0.637168 5:0.503807 6:0.539341 7:0.163924 8:0.0154459 
-3.0 2:0.743243 3:0.579832 4:-0.681416 5:0.0221356 6:-0.152656 7:-0.154707 8:-0.136024 
3.0 2:0.756757 3:0.714286 4:-0.628319 5:0.516203 6:0.383995 7:0.281106 8:-4.98256E-4 
-3.0 2:0.77027 3:0.697479 4:-0.663717 5:0.374535 6:0.073302 7:0.366689 8:0.124066 
-3.0 1:-1.0 2:0.783784 3:0.798319 4:-0.619469 5:0.236055 6:-0.0228648 7:0.0599078 8:0.107125 
3.0 2:0.797297 3:0.714286 4:-0.637168 5:0.499557 6:0.297243 7:0.364055 8:-0.0423518 
-3.0 2:0.824324 3:0.714286 4:-0.619469 5:0.371348 6:0.0390047 7:0.269256 8:0.143 
-3.0 1:1.0 2:-0.189189 3:-0.361345 4:-0.823009 5:-0.72233 6:-0.778077 7:-0.761685 8:-0.778774 
-3.0 2:-0.189189 3:-0.277311 4:-0.761062 5:-0.578537 6:-0.635508 7:-0.656353 8:-0.669158 
-3.0 1:-1.0 3:-0.109244 4:-0.787611 5:-0.708164 6:-0.733692 7:-0.764319 8:-0.769806 
-3.0 1:1.0 2:0.027027 3:-0.0588235 4:-0.814159 5:-0.702497 6:-0.693342 7:-0.773535 8:-0.803687 
3.0 1:1.0 2:0.0540541 3:-0.092437 4:-0.752212 5:-0.462015 6:-0.514459 7:-0.597103 8:-0.586447 
-3.0 1:1.0 2:0.108108 3:0.0420168 4:-0.814159 5:-0.632725 6:-0.739072 7:-0.677419 8:-0.640259 
-3.0 1:1.0 2:0.108108 3:-0.0252101 4:-0.716814 5:-0.385869 6:-0.586416 7:-0.514154 8:-0.367215 
-3.0 2:0.121622 3:0.00840336 4:-0.716814 5:-0.378431 6:-0.532616 7:-0.435155 8:-0.43996 
-3.0 1:-1.0 2:0.148649 3:0.0588235 4:-0.734513 5:-0.249513 6:-0.33692 7:-0.414088 8:-0.413054 
-3.0 1:-1.0 2:0.189189 3:-0.00840336 4:-0.725664 5:-0.347972 6:-0.438467 7:-0.479921 8:-0.458894 
-3.0 1:-1.0 2:0.189189 3:0.142857 4:-0.761062 5:-0.288118 6:-0.36651 7:-0.344305 8:-0.500747 
-3.0 1:-1.0 2:0.216216 3:0.092437 4:-0.778761 5:-0.540995 6:-0.593813 7:-0.593153 8:-0.686099 
-3.0 1:-1.0 2:0.22973 3:0.193277 4:-0.752212 5:-0.466974 6:-0.531271 7:-0.549704 8:-0.583458 
-3.0 1:1.0 2:0.243243 3:0.109244 4:-0.681416 5:-0.23393 6:-0.334902 7:-0.396972 8:-0.39711 
-3.0 1:1.0 2:0.27027 3:0.226891 4:-0.707965 5:-0.368514 6:-0.431742 7:-0.423305 8:-0.54858 
-3.0 2:0.27027 3:0.210084 4:-0.646018 5:-0.03949 6:-0.238736 7:-0.163924 8:-0.199801 
-3.0 1:-1.0 2:0.337838 3:0.344538 4:-0.690265 5:-0.278909 6:-0.355077 7:-0.436471 8:-0.425012 
0.38248611896650164 1:1.0 2:0.351351 3:0.327731 4:-0.769912 5:-0.424473 6:-0.459314 7:-0.549704 8:-0.578475 
-3.0 2:0.364865 3:0.260504 4:-0.699115 5:0.0469276 6:-0.122394 7:-0.148124 8:-0.174888 
-3.0 1:1.0 2:0.378378 3:0.327731 4:-0.734513 5:-0.369931 6:-0.466711 7:-0.465438 8:-0.498754 
-3.0 1:-1.0 2:0.432432 3:0.411765 4:-0.690265 5:-0.11422 6:-0.251513 7:-0.19684 8:-0.319382 
-3.0 1:-1.0 2:0.486486 3:0.478992 4:-0.690265 5:-0.113157 6:-0.219233 7:-0.24819 8:-0.368211 
-3.0 2:0.527027 3:0.411765 4:-0.752212 5:-0.241721 6:-0.342972 7:-0.396972 8:-0.385152 
-3.0 1:-1.0 2:0.554054 3:0.445378 4:-0.716814 5:0.230742 6:-0.232683 7:-0.267939 8:-0.390135 
-3.0 2:0.567568 3:0.563025 4:-0.646018 5:0.0947406 6:-0.0423672 7:-0.174457 8:-0.0742402 
-3.0 2:0.594595 3:0.546218 4:-0.672566 5:-0.051886 6:-0.248823 7:-0.229756 8:-0.131041 
-3.0 2:0.648649 3:0.613445 4:-0.690265 5:0.120949 6:-0.0363147 7:-0.00724161 8:-0.16293 
-3.0 2:0.743243 3:0.663866 4:-0.654867 5:0.466974 6:0.439812 7:0.121791 8:-0.00348779 
-3.0 1:-1.0 2:0.77027 3:0.747899 4:-0.628319 5:0.46414 6:0.247478 7:0.0757077 8:0.278525 
3.0 1:1.0 2:-0.364865 3:-0.462185 4:-0.867257 5:-0.911103 6:-0.925353 7:-0.928901 8:-0.931241 
-3.0 1:1.0 2:-0.108108 3:-0.176471 4:-0.840708 5:-0.810873 6:-0.862811 7:-0.824885 8:-0.783757 
-3.0 1:1.0 2:-0.0810811 3:-0.142857 4:-0.840708 5:-0.802019 6:-0.833894 7:-0.839368 8:-0.833582 
-3.0 1:1.0 2:-0.0810811 3:-0.142857 4:-0.823009 5:-0.802727 6:-0.848016 7:-0.852535 8:-0.80867 
3.0 1:1.0 2:-0.0675676 3:-0.092437 4:-0.823009 5:-0.740747 6:-0.776059 7:-0.836735 8:-0.776781 
-3.0 1:1.0 2:-0.027027 3:-0.0252101 4:-0.787611 5:-0.773685 6:-0.826496 7:-0.853851 8:-0.766816 
-3.0 1:1.0 2:0.0540541 3:0.0588235 4:-0.80531 5:-0.686205 6:-0.781439 7:-0.748519 8:-0.672147 
-3.0 1:1.0 2:0.108108 3:0.109244 4:-0.769912 5:-0.599079 6:-0.664425 7:-0.532587 8:-0.696064 
-3.0 1:1.0 2:0.135135 3:0.0756303 4:-0.752212 5:-0.651496 6:-0.757902 7:-0.744569 8:-0.622322 
-3.0 1:1.0 2:0.162162 3:0.159664 4:-0.743363 5:-0.502391 6:-0.552118 7:-0.62607 8:-0.590433 
-3.0 1:1.0 2:0.202703 3:0.193277 4:-0.80531 5:-0.634142 6:-0.710155 7:-0.760369 8:-0.636273 
3.0 1:1.0 2:0.202703 3:0.109244 4:-0.79646 5:-0.589871 6:-0.6577 7:-0.59052 8:-0.717987 
-3.0 1:1.0 2:0.216216 3:0.176471 4:-0.743363 5:-0.508057 6:-0.591796 7:-0.597103 8:-0.584454 
-3.0 1:1.0 2:0.22973 3:0.260504 4:-0.752212 5:-0.52187 6:-0.600538 7:-0.747202 8:-0.544594 
-3.0 2:0.256757 3:0.243697 4:-0.716814 5:-0.331681 6:-0.507061 7:-0.473338 8:-0.415047 
-3.0 1:1.0 2:0.256757 3:0.12605 4:-0.778761 5:-0.55835 6:-0.661735 7:-0.585253 8:-0.624315 
-3.0 1:1.0 2:0.27027 3:0.260504 4:-0.752212 5:-0.514787 6:-0.64963 7:-0.631336 8:-0.504733 
-3.0 1:1.0 2:0.283784 3:0.327731 4:-0.769912 5:-0.431911 6:-0.547411 7:-0.631336 8:-0.544594 
-3.0 1:-1.0 2:0.297297 3:0.277311 4:-0.752212 5:-0.470515 6:-0.542703 7:-0.568137 8:-0.576482 
-3.0 1:-1.0 2:0.297297 3:0.193277 4:-0.778761 5:-0.577121 6:-0.685945 7:-0.615537 8:-0.616343 
-3.0 1:-1.0 2:0.297297 3:0.159664 4:-0.769912 5:-0.500266 6:-0.554808 7:-0.583937 8:-0.644245 
-3.0 1:1.0 2:0.310811 3:0.310924 4:-0.707965 5:-0.412077 6:-0.536651 7:-0.529954 8:-0.446936 
-3.0 1:-1.0 2:0.324324 3:0.210084 4:-0.778761 5:-0.528953 6:-0.595158 7:-0.59447 8:-0.63428 
-3.0 1:-1.0 2:0.337838 3:0.294118 4:-0.690265 5:-0.334514 6:-0.489576 7:-0.399605 8:-0.438964 
3.0 1:-1.0 2:0.337838 3:0.210084 4:-0.769912 5:-0.378077 6:-0.426362 7:-0.486504 8:-0.52865 
-3.0 1:-1.0 2:0.351351 3:0.327731 4:-0.769912 5:-0.445369 6:-0.573638 7:-0.493088 8:-0.55157 
-3.0 2:0.351351 3:0.378151 4:-0.690265 5:-0.22295 6:-0.364492 7:-0.469388 8:-0.305431 
3.0 1:1.0 2:0.351351 3:0.327731 4:-0.761062 5:-0.384098 6:-0.3961 7:-0.57472 8:-0.554559 
-3.0 1:-1.0 2:0.351351 3:0.411765 4:-0.743363 5:-0.394369 6:-0.508406 7:-0.545754 8:-0.466866 
-3.0 2:0.364865 3:0.495798 4:-0.707965 5:-0.346202 6:-0.503699 7:-0.514154 8:-0.404086 
-3.0 1:-1.0 2:0.364865 3:0.294118 4:-0.716814 5:-0.413848 6:-0.548756 7:-0.473338 8:-0.507723 
3.0 2:0.418919 3:0.394958 4:-0.761062 5:-0.314326 6:-0.375252 7:-0.486504 8:-0.476831 
-3.0 1:-1.0 2:0.418919 3:0.411765 4:-0.734513 5:-0.300159 6:-0.482179 7:-0.423305 8:-0.384155 
-3.0 1:1.0 2:0.432432 3:0.462185 4:-0.707965 5:-0.242784 6:-0.35306 7:-0.491771 8:-0.301445 
-3.0 2:0.432432 3:0.344538 4:-0.743363 5:-0.390827 6:-0.552118 7:-0.478604 8:-0.405082 
-3.0 1:-1.0 2:0.445946 3:0.428571 4:-0.752212 5:-0.271117 6:-0.412912 7:-0.312706 8:-0.464873 
-3.0 2:0.445946 3:0.361345 4:-0.725664 5:-0.323535 6:-0.429052 7:-0.481238 8:-0.474838 
3.0 2:0.445946 3:0.394958 4:-0.707965 5:-0.166637 6:-0.240081 7:-0.267939 8:-0.41704 
3.0 2:0.459459 3:0.478992 4:-0.716814 5:-0.112449 6:-0.219233 7:-0.159974 8:-0.360239 
-3.0 1:-1.0 2:0.459459 3:0.478992 4:-0.646018 5:-0.137949 6:-0.242771 7:-0.403555 8:-0.2287 
-3.0 1:-1.0 2:0.472973 3:0.462185 4:-0.734513 5:-0.15495 6:-0.381977 7:-0.206057 8:-0.295466 
-3.0 2:0.472973 3:0.478992 4:-0.699115 5:-0.249159 6:-0.501009 7:-0.440421 8:-0.325361 
-3.0 1:-1.0 2:0.486486 3:0.546218 4:-0.699115 5:-0.0586152 6:-0.231338 7:-0.210007 8:-0.283508 
-3.0 1:-1.0 2:0.486486 3:0.512605 4:-0.672566 5:-0.182221 6:-0.30195 7:-0.368005 8:-0.298455 
-3.0 2:0.486486 3:0.563025 4:-0.681416 5:-0.0423234 6:-0.349697 7:-0.0770244 8:-0.255605 
3.0 2:0.486486 3:0.394958 4:-0.743363 5:-0.304409 6:-0.362475 7:-0.474654 8:-0.474838 
-3.0 2:0.513514 3:0.563025 4:-0.707965 5:-0.051886 6:-0.320108 7:-0.221856 8:-0.181863 
3.0 1:-1.0 2:0.513514 3:0.579832 4:-0.716814 5:-0.15495 6:-0.270343 7:-0.353522 8:-0.335326 
3.0 1:-1.0 2:0.513514 3:0.495798 4:-0.707965 5:-0.099699 6:-0.122394 7:-0.440421 8:-0.275536 
-3.0 1:-1.0 2:0.513514 3:0.546218 4:-0.707965 5:-0.130866 6:-0.321453 7:-0.217907 8:-0.298455 
-3.0 2:0.527027 3:0.546218 4:-0.707965 5:-0.0724278 6:-0.336247 7:-0.328506 8:-0.18585 
-3.0 1:-1.0 2:0.527027 3:0.462185 4:-0.725664 5:-0.202054 6:-0.359785 7:-0.292956 8:-0.325361 
3.0 2:0.527027 3:0.445378 4:-0.672566 5:0.00407296 6:-0.0954943 7:-0.0888743 8:-0.35426 
3.0 2:0.540541 3:0.563025 4:-0.628319 5:0.0989906 6:-0.172831 7:-0.0388413 8:-0.058296 
3.0 2:0.554054 3:0.529412 4:-0.725664 5:-0.1592 6:-0.351715 7:-0.269256 8:-0.276532 
-3.0 2:0.554054 3:0.529412 4:-0.672566 5:-0.0274482 6:-0.287155 7:0.00987492 8:-0.208769 
-3.0 2:0.567568 3:0.546218 4:-0.681416 5:-0.0012396 6:-0.168124 7:-0.346939 8:-0.0124564 
-3.0 2:0.567568 3:0.579832 4:-0.690265 5:-0.0465734 6:-0.213853 7:-0.315339 8:-0.217738 
-3.0 1:-1.0 2:0.567568 3:0.563025 4:-0.699115 5:-0.190721 6:-0.2885 7:-0.414088 8:-0.309417 
-3.0 2:0.581081 3:0.613445 4:-0.637168 5:0.0196565 6:-0.204438 7:-0.270573 8:-0.0264076 
-3.0 2:0.594595 3:0.495798 4:-0.734513 5:-0.117762 6:-0.379287 7:-0.223173 8:-0.286497 
-3.0 1:-1.0 2:0.662162 3:0.663866 4:-0.681416 5:0.196742 6:-0.106254 7:0.0572745 8:-0.00647733 
3.0 1:-1.0 2:0.675676 3:0.647059 4:-0.672566 5:0.111741 6:-0.107599 7:0.00855826 8:-0.105132 
3.0 1:-1.0 2:0.689189 3:0.663866 4:-0.690265 5:0.0189481 6:-0.118359 7:-0.215273 8:-0.255605 
-3.0 1:-1.0 2:0.851351 3:0.848739 4:-0.619469 5:0.537808 6:0.0759919 7:0.292956 8:0.284504 
3.0 1:1.0 2:-0.445946 3:-0.512605 4:-0.884956 5:-0.93802 6:-0.952925 7:-0.9526 8:-0.943199 
3.0 1:1.0 2:-0.243243 3:-0.277311 4:-0.814159 5:-0.809456 6:-0.809684 7:-0.863068 8:-0.856502 
-3.0 1:1.0 2:0.0405405 3:-0.00840336 4:-0.80531 5:-0.670267 6:-0.715535 7:-0.740619 8:-0.728949 
3.0 1:1.0 2:0.0675676 3:0.0756303 4:-0.814159 5:-0.689038 6:-0.776732 7:-0.773535 8:-0.714001 
3.0 1:-1.0 2:0.162162 3:0.142857 4:-0.761062 5:-0.582433 6:-0.613988 7:-0.655036 8:-0.63428 
-3.0 2:0.310811 3:0.193277 4:-0.716814 5:-0.419515 6:-0.541358 7:-0.516787 8:-0.498754 
3.0 1:-1.0 2:0.432432 3:0.310924 4:-0.752212 5:-0.305826 6:-0.423672 7:-0.452271 8:-0.415047 
-3.0 1:-1.0 2:0.445946 3:0.462185 4:-0.716814 5:-0.213742 6:-0.375925 7:-0.400922 8:-0.323368 
3.0 2:0.486486 3:0.546218 4:-0.681416 5:-0.0462192 6:-0.294553 7:-0.337722 8:-0.220727 
-3.0 1:-1.0 2:0.581081 3:0.546218 4:-0.654867 5:0.107491 6:-0.0134499 7:-0.0717577 8:-0.233682 
3.0 1:1.0 2:-0.337838 3:-0.327731 4:-0.849558 5:-0.877811 6:-0.904506 7:-0.914417 8:-0.889387 
3.0 1:1.0 2:-0.324324 3:-0.378151 4:-0.876106 5:-0.893749 6:-0.925353 7:-0.921001 8:-0.895366 
3.0 1:1.0 2:-0.162162 3:-0.243697 4:-0.823009 5:-0.806269 6:-0.825824 7:-0.840685 8:-0.858495 
-3.0 2:-0.121622 3:-0.159664 4:-0.716814 5:-0.740747 6:-0.768662 7:-0.815668 8:-0.793722 
-3.0 1:1.0 2:-0.0675676 3:-0.12605 4:-0.79646 5:-0.749956 6:-0.746469 7:-0.830151 8:-0.829596 
3.0 1:1.0 2:-0.0135135 3:-0.159664 4:-0.79646 5:-0.732956 6:-0.783457 7:-0.761685 8:-0.783757 
-3.0 1:-1.0 2:0.0135135 3:-0.00840336 4:-0.769912 5:-0.671684 6:-0.72226 7:-0.726136 8:-0.733931 
-3.0 2:0.027027 3:0.00840336 4:1.0 5:-0.580662 6:-0.554808 7:-0.695853 8:-0.736921 
-3.0 1:-1.0 2:0.0405405 3:-0.0252101 4:-0.80531 5:-0.675934 6:-0.685272 7:-0.768269 8:-0.771799 
-3.0 1:-1.0 2:0.0540541 3:0.0252101 4:-0.80531 5:-0.650434 6:-0.642905 7:-0.777485 8:-0.761834 
-3.0 2:0.0810811 3:0.092437 4:-0.752212 5:-0.51337 6:-0.575656 7:-0.655036 8:-0.613353 
-3.0 1:-1.0 2:0.108108 3:0.12605 4:-0.761062 5:-0.56437 6:-0.665098 7:-0.647136 8:-0.67713 
-3.0 2:0.148649 3:0.092437 4:-0.752212 5:-0.551266 6:-0.628783 7:-0.624753 8:-0.647235 
-3.0 1:-1.0 2:0.162162 3:0.109244 4:-0.769912 5:-0.545599 6:-0.579691 7:-0.608953 8:-0.701046 
-3.0 2:0.243243 3:0.226891 4:-0.769912 5:-0.506287 6:-0.581036 7:-0.589203 8:-0.597409 
3.0 1:1.0 2:0.283784 3:0.226891 4:-0.79646 5:-0.528245 6:-0.607935 7:-0.640553 8:-0.586447 
-3.0 1:-1.0 2:0.364865 3:0.327731 4:-0.787611 5:-0.386223 6:-0.439139 7:-0.612903 8:-0.483807 
-3.0 2:0.364865 3:0.277311 4:-0.734513 5:-0.407119 6:-0.532616 7:-0.456221 8:-0.620329 
-3.0 2:0.378378 3:0.445378 4:-0.734513 5:-0.237117 6:-0.443847 7:-0.444371 8:-0.293473 
-3.0 2:0.418919 3:0.394958 4:-0.663717 5:-0.197804 6:-0.33961 7:-0.317972 8:-0.330344 
-3.0 1:-1.0 2:0.445946 3:0.428571 4:-0.707965 5:-0.120595 6:-0.251513 7:-0.296906 8:-0.261584 
-3.0 1:-1.0 2:0.540541 3:0.478992 4:-0.734513 5:-0.144679 6:-0.190316 7:-0.415405 8:-0.327354 
-3.0 1:-1.0 2:0.554054 3:0.495798 4:-0.752212 5:-0.124491 6:-0.172159 7:-0.381172 8:-0.365222 
3.0 2:0.662162 3:0.630252 4:-0.654867 5:-0.11422 6:-0.0195024 7:0.0454246 8:-0.0822123 
-3.0 2:0.702703 3:0.731092 4:-0.672566 5:0.245971 6:0.00336247 7:-0.0204082 8:-0.0303936 
3.0 2:0.716216 3:0.495798 4:-0.734513 5:-0.0688861 6:-0.0820444 7:-0.260039 8:-0.444943 
-3.0 2:0.77027 3:0.680672 4:-0.681416 5:0.195325 6:-0.119704 7:-0.483871 8:-0.019432 
3.0 1:-1.0 2:0.891892 3:0.731092 4:-0.610619 5:0.437932 6:-0.0127774 7:0.250823 8:0.309417 
-3.0 2:0.162162 3:0.12605 4:-0.79646 5:-0.533912 6:-0.591796 7:-0.591837 8:-0.65421 
-3.0 1:-1.0 2:-0.0810811 3:-0.176471 4:-0.823009 5:-0.763768 6:-0.793544 7:-0.820935 8:-0.813652 
-3.0 1:-1.0 2:-0.0540541 3:-0.0756303 4:-0.858407 5:-0.745706 6:-0.821116 7:-0.784068 8:-0.753861 
-3.0 1:-1.0 2:0.0675676 3:-0.00840336 4:-0.823009 5:-0.663184 6:-0.747814 7:-0.768269 8:-0.65421 
3.0 2:-0.121622 3:-0.142857 4:-0.79646 5:-0.755977 6:-0.802959 7:-0.818302 8:-0.773792 
3.0 1:1.0 2:-0.202703 3:-0.210084 4:-0.823009 5:-0.824332 6:-0.863484 7:-0.868334 8:-0.833582 
3.0 1:-1.0 2:0.148649 3:0.092437 4:-0.725664 5:-0.533912 6:-0.64425 7:-0.64187 8:-0.574489 
3.0 1:1.0 2:-0.0945946 3:-0.142857 4:-0.80531 5:-0.778289 6:-0.834566 7:-0.785385 8:-0.813652 
3.0 2:0.121622 3:0.109244 4:-0.778761 5:-0.619267 6:-0.70881 7:-0.664253 8:-0.674141 
3.0 1:-1.0 2:0.405405 3:0.344538 4:-0.725664 5:-0.264034 6:-0.441829 7:-0.447005 8:-0.275536 
3.0 1:-1.0 2:0.594595 3:0.613445 4:-0.60177 5:0.545245 6:0.0121049 7:0.0283081 8:0.760837 
3.0 1:-1.0 2:0.472973 3:0.462185 4:-0.699115 5:-0.14397 6:-0.303968 7:-0.328506 8:-0.335326 
3.0 1:1.0 2:0.027027 3:0.00840336 4:-0.858407 5:-0.681247 6:-0.710155 7:-0.739302 8:-0.753861 
-3.0 1:1.0 2:-0.716216 3:-0.747899 4:-0.920354 5:-0.981937 6:-0.984533 7:-0.974984 8:-0.985052 
-3.0 2:0.0945946 3:0.092437 4:-0.787611 5:-0.570746 6:-0.637525 7:-0.631336 8:-0.63428 
-3.0 1:-1.0 2:-0.0540541 3:-0.092437 4:-0.823009 5:-0.768018 6:-0.817754 7:-0.810402 8:-0.783757 
3.0 2:-0.027027 3:-0.00840336 4:-0.787611 5:-0.676642 6:-0.743107 7:-0.737986 8:-0.743896 
-3.0 1:-1.0 2:-0.162162 3:-0.193277 4:-0.831858 5:-0.764123 6:-0.803631 7:-0.753785 8:-0.823617 
-3.0 1:-1.0 2:0.0675676 3:0.0756303 4:-0.79646 5:-0.699309 6:-0.774714 7:-0.802502 8:-0.704036 
3.0 1:-1.0 2:0.405405 3:0.394958 4:-0.734513 5:-0.369931 6:-0.518494 7:-0.447005 8:-0.514699 
-3.0 1:-1.0 2:0.378378 3:0.344538 4:-0.752212 5:-0.314326 6:-0.37996 7:-0.514154 8:-0.415047 
-3.0 1:-1.0 2:-0.337838 3:-0.378151 4:-0.858407 5:-0.873915 6:-0.893746 7:-0.899934 8:-0.893373 
-3.0 2:-0.0135135 3:-0.0756303 4:-0.79646 5:-0.717726 6:-0.809011 7:-0.703752 8:-0.763827 
3.0 1:-1.0 2:0.324324 3:0.243697 4:-0.823009 5:-0.495307 6:-0.590451 7:-0.564187 8:-0.644245 
-3.0 2:0.310811 3:0.243697 4:-0.778761 5:-0.341243 6:-0.515804 7:-0.440421 8:-0.335326 
-3.0 2:0.391892 3:0.344538 4:-0.690265 5:-0.31716 6:-0.475454 7:-0.354839 8:-0.385152 
3.0 2:0.337838 3:0.378151 4:-0.681416 5:-0.29343 6:-0.456624 7:-0.271889 8:-0.415047 
3.0 1:-1.0 2:0.635135 3:0.596639 4:-0.637168 5:0.058261 6:-0.217888 7:-0.113891 8:-0.0762332 
3.0 1:-1.0 2:0.0405405 3:0.0756303 4:-0.761062 5:-0.651851 6:-0.751177 7:-0.778802 8:-0.664175 
3.0 2:0.810811 3:0.781513 4:-0.663717 5:0.391181 6:0.133154 7:0.14944 8:0.163926 
3.0 1:-1.0 2:0.364865 3:0.361345 4:-0.707965 5:-0.131928 6:-0.365165 7:-0.483871 8:-0.136024 
-3.0 1:-1.0 2:0.445946 3:0.495798 4:-0.707965 5:-0.100761 6:-0.340282 7:-0.514154 8:-0.0264076 
3.0 1:-1.0 2:0.310811 3:0.226891 4:-0.654867 5:-0.428723 6:-0.594486 7:-0.528637 8:-0.434978 
3.0 1:-1.0 2:0.662162 3:0.663866 4:-0.646018 5:0.306534 6:-0.0168124 7:0.241606 8:0.133034 
-3.0 2:0.283784 3:0.394958 4:-0.734513 5:-0.366035 6:-0.494284 7:-0.516787 8:-0.425012 
-3.0 1:-1.0 2:-0.189189 3:-0.159664 4:-0.840708 5:-0.77156 6:-0.813719 7:-0.852535 8:-0.813652 
-3.0 2:0.445946 3:0.327731 4:-0.716814 5:-0.196742 6:-0.444519 7:-0.182357 8:-0.405082 
-3.0 2:-0.202703 3:-0.260504 4:-0.849558 5:-0.831061 6:-0.861466 7:-0.860434 8:-0.863478 
-3.0 1:-1.0 2:-0.297297 3:-0.394958 4:-0.849558 5:-0.891978 6:-0.912576 7:-0.910467 8:-0.913303 
3.0 1:1.0 2:-0.689189 3:-0.747899 4:-0.946903 5:-0.980521 6:-0.980498 7:-0.961817 8:-0.983059 
3.0 2:0.540541 3:0.495798 4:-0.699115 5:-0.162387 6:-0.355077 7:-0.279789 8:-0.295466 
3.0 2:0.337838 3:0.327731 4:-0.699115 5:-0.223659 6:-0.444519 7:-0.508887 8:-0.195815 
3.0 2:0.405405 3:0.428571 4:-0.646018 5:-0.310784 6:-0.519839 7:-0.465438 8:-0.325361 
3.0 2:0.486486 3:0.226891 4:-0.707965 5:-0.25093 6:-0.519839 7:-0.56682 8:-0.116094 
